1,"[-0.3208922849319702, 0.025319619194361653, 0.8135274285409086, -0.7972330815101879, -0.7514573733001514, 0.9014704830926603, 0.8731841699130283, 0.3905052252107488, 0.2381627798121213, 0.3196703968496635, 0.8382254163061362, 0.10331328321977784, -0.6120114159628645, -0.32722440603844705, -0.5700258376399401, 1.5577200096082233, 0.47134469601368734, 1.155610006297874, 0.726288261991944, -0.8895079788525854, -0.8742877312094982, -0.871563658020603, -0.7029488269834885, 1.3049165007231012, -0.7351807907862655, 1.396302191359235, 0.619367554466669, -1.0101593459058178, 0.5342066491039357, 0.07061782593926513, -0.061105651524387516, 1.416365867182079, -0.7228339540849283, -0.20794362865460458, -0.20058756387491128, -0.5245341447779248, 0.4989296362350082, 1.3627759421975054, 1.246060491676129, -0.07541410412780536, -0.7096823138081265, 0.12917438987440777, 0.26936188530115235, -1.3388555591114373, -0.7206953724701258, -0.21027457552583884, 1.2558522782159187, 1.5552071358173802, -1.4436314804449712, -0.4790389146456864, 0.758815995753988, 0.1189552794234574, 1.1899786204323193, -0.3046225633261983, 1.0639803521235844, -1.0999679060796406, 1.4683622373934635, -0.2872913045527492, -1.4867148685767615, 0.5739331811066348, -0.5949845043062116, 0.6402648678769487, 1.1682777031262779, 0.37861004167230683]","[0.6373704742035082, -0.5411345520974853, 1.1502009439109941, 0.5508982990034359, -1.0217251448756908, -1.2003431564453275, -0.11962358039013887, 0.5005032197295578, 0.609500168473772, 0.33271821145560776, -0.42135616309651613, -1.2040670584852833, -1.1240805137050185, 0.4525787499067393, 0.006631627274212626, 0.8327396397969467, -0.924943610053157, -0.8980308064710953, 1.157988826064292, -1.503708366675187, 0.46307060435945013, -0.29209745752559435, -0.489276363108164, -0.44580105570702866, 0.917023798708235, 0.6336822011305987, -1.4353603070438592, -0.06729931310399762, -1.5370660048528126, -0.2996730125100897, 0.8199556793219926, -0.24867607523277946, 0.5791150544495371, -0.9232580897037541, -0.1375081760746928, 0.5472474762222048, 0.7963504157321615, -0.3286589875484458, -1.163665957937623, 0.6625936871747968, 0.2438398683630021, 0.6251236609955546, -0.28764202417916884, -0.31855562648891445, 0.9200191111958618, -0.8063651491085346, -0.9229788812574359, -1.3630365601763315, -0.6065438885410728, 0.6869410034828247, 0.8534645383388355, 0.6472335670296525, -1.0089250761285478, 1.3784230785572782, -1.3339532293870957, 0.09913203239602097, -1.4369380569157377, -1.1282625120446337, 0.041647754544130944, -1.2091730655053095, 1.5037224726612406, 1.5617294140939015, 1.1289240367651288, 1.3567750338058593]","[-0.6738994806657744, 0.13668949676899222, 1.3331728171314956, 0.956364529034889, -1.5366206046017066, 1.231093527926809, 1.1843736009214987, -1.2707362898021897, -0.16207719864449133, 0.8262294217927546, -0.9019077461891829, -0.25048691207310836, 1.1068307244695195, -1.4148265958607669, -0.6278461387304366, 0.05331040451277125, 1.2879667866420967, -1.4532421758782899, -1.2269226240328757, 1.1268944473033997, 0.5395887309326559, 0.05315795949574431, -1.4570188406534266, -0.916167206274196, -1.4052589249552685, -1.6067958115968288, 0.8556060749546952, 0.9262353609970821, -0.365740908242951, 0.5545867134766231, 0.600606547531704, 0.5867982751753931, -0.6088157794105813, 0.4772859379861649, -1.5127436809614458, 0.8626150703162563, -1.0100916864523792, -1.2954231928975974, 0.9302377026674189, 0.5449313034138186, -1.5542488446078118, 1.2790556488665743, 0.08918775536191581, -0.8959414886982245, -0.7791253017622306, 1.299619160780507, -1.085693635286092, 0.6851937818813396, 0.0212286075433199, -0.37860985181738527, 1.0131381742476901, 1.350517294814316, 0.07306799005470932, -0.5278210494339599, 0.33746666495558264, -1.4513612219207679, 0.18942053478097298, 1.6136103671532238, 0.9773488763058529, -0.26232059590944456, -0.552852516233806, -1.2624974962559614, -0.9257932109564025, 0.4648944287613066]","[-1.1142296921842618, 0.7947427348649372, -1.519333614392362, 1.5062139290856464, 0.6001626675235956, -0.21059599217576008, 0.05108798850477703, -1.414904308566893, -1.6071160048414002, -1.3474010743531823, 0.1741079859134409, 0.8198526336378889, -0.34807085616289335, 1.0463114393201667, -0.49140609427484483, -1.150402428639766, 0.057094689786459485, -1.5012896073585562, 0.9429390707215561, 0.003939353176839688, -1.4534306544794258, 0.4359370109205427, 0.9680965649690316, 0.7514238564542919, 0.0023226359631025595, -1.5693489987202602, 0.4856822530313929, -0.803616178322488, -0.4661627416353169, 0.14316071497323257, 0.825555204081589, 1.0578457954566978, -0.23721378196018827, -0.1268751186854733, 0.6527971668404042, 0.980108252316918, 0.9898092795651188, 1.6068562008933882, 0.09200823769438493, -0.21364997283607567, -0.1054720479465423, 0.38366195846685236, -0.3333476341916872, -0.7415262634505707, -0.007525413550367954, -1.005708575362271, 0.27270942387341135, 1.3752673546820202, 1.000869545018519, -1.4271434148262525, -1.3369914177557531, -0.9148428024305444, 0.9763940632039523, 0.42884595633214495, 0.8583182853648936, -0.7746404293153973, 0.8733528633835816, -1.1400010712583848, -1.3224589243230152, -1.1783125168505437, 0.7019358638344251, -0.7973730808692844, -1.4124670786297704, -0.44552014331715784]","[1.031355557305102, 1.4369930356915583, -1.6079323895102509, -1.0493419049371142, 0.45888967716884466, 0.5216325474880228, -0.3649665438500662, -0.8254674030021139, 1.387222659490916, -0.6199828231276323, 0.6023412612541126, -1.1263875862260957, 0.7040924286178014, -0.2964429626895526, 0.38329547865729907, 1.2757126927558309, 0.6562740706360306, -0.9799658275703395, -0.9383789055962789, -1.2477462511184312, 0.10078859184975508, -0.2844886664992696, -0.014399131762524053, -0.34068271214807244, 1.1271072654790975, -0.8815256746860894, 1.5817444265417935, 0.32068448056454546, -0.5389035130975377, -0.88145965446841, -0.07687376342247365, -0.09471185228649759, -1.3725556113662896, 1.3491584788899513, 0.6810206108105405, 0.8737824937633585, 1.4523481624671986, -1.5977134065803165, -0.8294377976078786, 1.5771103604228824, 0.4569123559131918, 1.2857472857915853, -0.9259200697384071, -0.8577524783149295, 1.4519301797084903, -1.164264544925003, -0.2856473209665553, 0.8446254492524661, -1.557034413331119, -1.274962108113244, -1.0988559927078905, 0.995221430539448, 0.7156761489565469, 1.1179823536452358, -0.9932660316018508, 0.4807593356404527, 1.1041929053619377, 1.4759094986658394, -1.2204933820097794, 0.22388781883562237, 1.0899856873631366, 0.6418752598150017, 0.5591322534629986, -0.9638319802653632]","[-0.13494478411245692, -0.31592751445389444, 1.1760836904043286, -0.46278930298920384, -1.550481465683068, 1.459382771493793, -0.19837834893209494, -0.1993657945841052, -0.3503733261820199, 0.4868888922220407, 0.8219996112202823, 0.995828123946747, 1.2396949219460773, -1.144946421602742, -0.02474553863607265, -0.8078276611188108, -1.5220934360422114, 0.4341276199415667, 1.3613872688351618, -1.1270029045103407, -1.2580681732599173, 1.4857073601555535, 0.3821536574188007, 1.1509500025949713, 0.6474431327628154, 1.274669842716146, 1.2237120332683444, 0.20681453835178365, -1.6083961925906696, -0.16512172713475626, -0.24202633034897647, -1.0717890714833316, 0.640286791538891, -1.5436064940781955, -1.3899737902975777, -0.3153306278827466, 1.3062014498503762, -0.8323844898130176, 1.5372431807885447, -1.0707669848154056, -0.13430974103976956, -0.38936450955612933, 1.1513300593296667, 0.8095974019003722, 1.1910149908551908, 1.3773576791324564, -0.9055823064183316, 1.4957095758930787, 1.2095322719382668, -0.18247172926542365, 1.0127755304993364, 0.5110941349550524, 0.8316586596455529, 0.5111007908736904, -1.2672928156456595, -0.7860825119923222, -0.5538792918026092, 1.3305375958345675, -0.646519874069109, 1.4319176773799676, 0.5830912672917585, 0.18053252348417215, 0.37472467715711266, 0.7733169439872998]","[-0.06669039477624117, 0.5603861733114162, 0.5786382760331423, 0.37465601953023575, -0.6089652577075959, 0.3235313941553104, 1.5054257576142, -0.9545949758562489, -0.6517484964814382, -1.3168969910385022, -0.881135759983386, 0.44896984052398325, 0.2552182171287991, 0.7660975129199317, -0.16583097612689368, -1.5195937219233182, 0.11899263924912362, -1.5381173298506001, -0.9773314291788423, 0.35723148993111464, 1.1155982069888641, -0.13328944024312794, 0.8637757419901906, 1.2077773219154753, -0.7963498693064734, -0.5718854092561616, 0.4069274100593083, -1.206427327971555, 1.3333053225166505, 0.936713897843223, -0.42102271103467337, -0.6021190125327625, 0.15860387633162198, 1.3905752905329423, -1.1227646857673776, 0.847379464423542, -0.13599342277493776, 0.8893260120384427, -1.138017512368934, 1.0361582800527906, -0.10831062778418388, 0.022886239443492773, 0.12489612615386503, -1.5784584499379792, 1.3277537187353743, -0.050751952355426955, 1.5388039566964613, -0.004701939207688577, -1.4657685386479586, -1.0378083144280277, -1.1484609822856087, 1.5578460313525206, -1.5580237585167105, -1.2681592749460102, -0.22406602869754422, 0.3377493769944173, -1.3853716414330244, -1.0823685720324052, 1.3302519655140874, 1.2353273823442352, 0.3373599978937605, 0.11383552631676319, 0.7943289282439361, -0.7562227707299738]","[0.3082303385757199, -0.9159463649473516, -1.0579828972121657, -1.1458776626711924, 0.8332937323275167, -0.8781207548610213, 1.2438264771000793, -0.156960801704356, -1.2185072639971755, -0.39636369265208327, 1.3854243572625595, -1.1700511524967394, 0.5791111465394585, -1.5753734748322155, 0.23549873682062805, -0.24226380732144026, 0.5017353373008016, -1.014252217618412, -1.0843112221776134, -0.7474723317994592, -0.3576440933776308, 1.0392598685890784, -1.221200506519727, -0.14266117027934078, 1.3624527523187333, -1.2732656002523504, -0.2560238412818896, 1.0188108093098527, 0.4814621093112188, 0.11726666598782676, 0.6920746937281583, 0.24400039166044896, -1.3588682156490117, 1.2749853051673874, 0.5647178527571768, 0.32014969633751966, 0.743289172893506, -0.13828773736595878, 0.2877133392001434, 1.00034710747251, -1.3312078145831525, -0.11614413886748354, 0.9213359355703075, -0.8432409570032784, 0.36656616187842017, -0.1437059841831283, 1.2864033214480397, 0.2613581245817693, 1.583402624134132, 0.5884261554778827, -0.11324585268701015, 1.5562611280487184, -0.2340759493229423, 1.2476514447143217, -1.3600470293009232, -1.5818167908795298, 0.3444377670635832, 0.7032294373574772, 1.5768297764171333, 0.22387470925480013, -0.015093446120933773, 1.0927333210980068, 1.054866271309594, -0.240342366361731]","[0.19531461201396905, 0.12700469302977502, -1.0377245198414182, -1.4243887316763097, 0.7622713760004509, -0.6382207710433445, 1.056768643785238, 0.04281595499200663, -0.5105630434110566, 1.0470396428446618, 0.5378412171386637, -0.9391934978834837, 1.2502805844056057, 0.8411691873420639, -0.637128279447886, 0.02452714936756628, -0.04914041879211739, 1.1525742384711655, 0.5704043027295609, 1.2977487734219748, -0.2547166780939789, 0.6189976324470678, 1.2990569664237546, -0.6293474631730314, -0.2669667452872715, 0.5500298046377741, -1.4737549711500475, -0.8159092722734564, 1.4724957904403566, -0.40272880301024006, -1.0159399792978097, 0.4282508588909746, -0.03704661598857584, 1.3772899962240137, -1.5002055053552512, -1.1198409171697532, 1.4007978991517422, -1.3492176477779025, 0.32809596326007573, 1.0262238355372406, -1.3580918380199332, -0.41614614643070413, 1.0029659060325296, -0.9543619155337317, -1.4227858078020577, 1.4128640446568421, -1.2181390619075103, -1.275735144369344, -0.3356093649158596, -0.37515418000509837, 0.24134598710504207, 0.23614211640374827, 0.9278067011396036, 1.3673069799030548, -0.818295859885788, -0.07650917813938873, -0.9343781128613958, -0.9264114656145966, 1.5213850097752761, 0.921659378883763, 0.8600278515865933, 1.520339676701922, 0.7724442140810912, -1.6103472306295794]","[0.7900715165374317, -0.6637502831561023, -0.7053113122074495, 0.9541252967362928, -0.5393607026089329, -1.3736204169288615, -0.3911855314964314, 0.9845702277548187, 0.42604523575829445, -0.45208746136492106, 0.07579601727919805, 0.16997588776218842, -0.43916034170415164, -0.43038741444345185, -0.8279893485499574, -0.6458053245078255, -1.0670877996521502, 1.298687326327875, -0.6217147047266164, -0.2045586960528305, -1.4228461756760837, -1.3564405713269683, -0.07110827147755105, -0.8580546555230412, 1.454642610959576, -0.3960745354660269, 0.12319783548942387, -0.08788330848343051, 0.9988644110823448, -1.2723882531968702, -0.8762026627759073, 1.3125254348557243, -1.090030782186676, 1.413912528973404, 1.4813121842188788, 0.14468295987378377, -0.6645590765099778, 0.48018345285301134, -1.6027413280110954, 0.2741794990825728, -0.6653828805533448, 0.26115459157121323, 1.4629046385695497, -1.3416048062155472, 1.330973789782874, 0.17267259496483067, 0.3219905140695336, 0.9388685860590642, 0.9280782797677127, -0.9303403844578049, -0.7310053573637496, 0.9554439944647011, -1.609159610520241, 1.5977601693762327, 1.119044720363069, -1.5790025013344051, 0.8733494730237386, 0.586507120836465, -1.2936292259481021, -0.6678139385614701, 1.470519328662602, -1.34731340998777, -1.3160004665128864, -1.236731565051572]","[-0.9076709515421291, -0.250094761892633, -1.016446876542474, 1.1182970138898494, 1.2931417607780236, 0.9780248206348796, -0.3245188280830702, 1.018002321139091, 0.8728145054327792, -0.9764355247444724, -0.40824536536492184, -0.7142791429162464, -1.59589825067575, 1.613950008935264, -0.8598227506146482, 0.7632175922092928, 0.02948353905691281, 0.3209229214879521, -0.5991908570436535, 1.5224916245551623, -0.6872794998226608, 0.6424748560689477, 0.6305583146135083, -0.7904162323317241, -0.7529147001684917, -0.5641844572788415, 0.6742864161310509, -1.413021249741904, 1.0143866192641147, -0.7082364873443765, 1.3072341038142086, -0.9274847196418479, 1.5085903110700558, -0.721142699495767, -0.9106162214249317, 1.1452591296840717, 0.4793385554403624, -0.1777677706322076, -0.9585087491836882, 0.7643599061112165, -0.9528486101252271, -0.6750043349762215, 1.5248029583776228, 1.271933715517556, 0.5018720257814109, 0.6653849888426562, -1.6023563511165966, 0.610739294949973, -0.7680353131238445, 0.692259390226805, 0.07780057990650757, -0.6347307738187288, 0.5509297700241831, 0.6668355379946935, 1.342518828700948, -0.43499376541993806, -0.6338987693463948, -0.9696964434365406, -0.6753227979593609, 0.6263487710753086, -0.9376442839613356, 0.49523294780186555, -1.6029478286942034, 0.6299570658402391]","[-1.1835733089597822, -0.7090565214260424, 1.5016200007018283, 1.2037569874920795, 0.08078611043924422, 0.1688415858173462, -0.5042542591666808, 1.4366256315950738, -1.5402254361396162, 0.9619003950069764, 0.9968424489527954, 0.9571236655492452, 1.057014874022252, 1.3720858405470202, 0.008553970824471513, 0.28462730709505335, 0.6243408150587473, 0.9101720696734144, 0.7516759429883075, -1.2726274793860048, -0.1323468218485635, 0.9790778768482196, 1.2725500028125611, 0.787489287504382, -0.20291019512163633, 0.9077810559541639, -1.2223762469342094, 0.3107438931290938, -0.3666493313823951, -0.085207134624397, 0.8739772723129282, -0.2518469595980366, 0.588762545822282, -0.45760535984748785, -0.9237917056905067, -1.6112978979343273, -0.029819047022626277, 0.7576579251645765, 0.747230030226866, 1.048647147095703, -0.6355897020238109, 0.1306814456392018, -1.384783555001991, 0.7822544691996045, 1.3080096511783834, -0.5838939988094827, -0.06233418624115883, -1.4086350573919129, -0.09125920813173516, 1.2355421546491034, 1.0528514965803906, 0.40400990492367095, -1.1491677949598609, 0.5637540934611796, -1.0958112778035398, 1.5677596436166557, -0.8363268246776767, -1.0570771103019236, -0.23588012435866057, -0.7625915535575306, -0.7313857518557337, -0.11351274737285921, -1.279871219319503, -1.0058364202002077]"
2,"[0.47270215544265204, 0.418163696084509, -0.3595092744919042, 0.2040593250557683, -1.447455103832455, -1.3511139006583865, 0.8938770392657007, -0.21147445501386275, -0.14756426548224866, -0.3201908923983059, -0.7295332894263475, 1.2871610274052006]","[0.3152039927627852, 1.122316913181589, 1.3678187966405155, -0.9433663262537497, -0.2328290695909767, 0.10118289858737306, -0.13833511078918814, -0.39641388767409436, 0.3969160543515846, 0.11663164236351165, 0.5956867800670778, -1.525646979497883]","[0.13976272303149773, 0.25747825603832286, 1.3297228412555278, -0.9172480213540483, -0.6068397138139894, 0.6612625960996379, -1.28592873900447, 1.0302481701477646, -0.01611680412623895, -0.8888102212107329, -0.6871476181257818, 1.0119939656389638]","[0.3056796000873274, 1.226589265148161, -0.3819052316376599, -1.2873150318478546, -1.4820025249622844, 1.5433876715673103, -0.9077422464678911, -0.7016994114346943, 0.024891296408998898, -0.6601857328957474, 0.9711575797285752, 0.5339441506797411]","[-0.1722383902283029, 1.4997775672125044, -1.1141103946153812, 0.9550446672965642, 0.6703484257350123, -0.3116363584512254, -0.6458991839970558, -0.4175456585945081, -1.5496441613773344, 0.684341472162397, 1.0978394094995063, -0.8216022207136963]","[0.29732378904833423, 1.5277255666508074, 0.43667335914244054, -0.8424201455648567, 0.3303440299874518, 1.553011166229206, 0.15413466855170643, 1.4159913167964002, 1.5207362019251351, -0.26625783944032144, -0.6317786522472596, -0.9403044752611305]","[0.5868761863952239, -0.055039806517650725, 0.7539989390485289, -0.7865539949927942, 1.6112378866317618, -0.01423300874315414, -0.2048563596901467, -1.4962670224192034, -0.3786501718530928, -1.5364268228668487, -0.42744589974804237, -0.610724524005428]","[0.2068218088850049, 1.3456013469104886, -0.8738207724096778, -0.7094111811263814, -1.0051432823246913, -1.3640939784686004, 1.3880593377661294, -1.5324225650452084, -1.590443889680322, -0.41889933721079275, 1.1058247865834976, 0.9584645647776613]","[0.9391213674887218, -1.6088507167322117, 0.8072725892114945, 1.4150346084683165, -0.6817021985628909, 0.4947691730832391, 0.5759460123591573, 0.7924470311349854, 0.6942979702738139, -0.24147775118662507, 1.0190060106319998, 1.380898479613557]","[-0.7494151193423061, -0.11871767004063094, 0.09418277739967107, -1.2419132260894867, 1.38615316958319, 1.4867561324452372, -0.3513422228086127, -0.4193438271154619, 0.9836775897026584, -0.24826666790606544, 1.0808852555950228, 0.44644978567003735]"
3,"[1.357346642922538, 1.5622726752859957, -1.293028408918539, -0.43337059260897104, 0.7665903314516731, 1.2875700730372315, 1.2888612607364975, -0.7725357987047606, -0.7707005167914793, 0.24427356286635638]","[-0.019886205710532456, 1.5218011667726268, -0.3000701702136872, -0.49438319049906454, -0.8335945413263772, -0.3498715290882728, -0.13914882152675134, -0.625825364326623, 0.4720250308369458, 1.2184582262547563]","[0.13473799040901868, -0.9596541170882529, 0.41525349805259815, -1.5143964726268433, -0.3251681552079082, -0.2718048886768816, -0.9535995499203616, -0.5911322010915836, 0.30573171082013295, 0.3538815020749946]","[-0.09177188341563802, -1.1550783983981843, -1.1608474633891586, 1.5247038664840238, 0.08835698203660991, 1.1622767555371212, 0.0037913299054601612, 1.6017070188783253, -1.2627706291911667, 1.5729397491907644]","[-0.13794388601525043, -0.8647896763553348, 1.3846078690231036, -1.2830565916294427, 1.1038704921706843, 1.4600095648147837, 0.7207151832747605, -1.1020282383196855, -1.4318814361304844, 0.4835669368636708]","[0.9218592018922513, 0.12777809259618533, 0.6939257574626851, 0.2001031456298914, -0.5546846751207488, 1.569360313420809, 1.4143881598207546, 1.3314857884803488, -0.6917294042600635, -1.108578597686731]","[0.7830601258095715, -1.2183303282606488, 1.5359285446041122, 0.11555206352693337, -0.5623657341003307, 1.0538018660314412, -1.4251586300485495, 0.886460652652648, -1.4821470927413805, -1.0512327094863703]","[0.5242695245801401, 1.4382510998750697, 0.7236497055169888, -1.2798898180584923, 0.7499571642409868, -1.0743778002262974, -0.2520926889299515, 0.683389814159399, 1.5083862577410607, 0.38290789679434534]","[-0.5225278501254178, -0.7891007537606926, -0.4588709012671308, -0.6543351807699619, -0.9227784384879004, -0.551355527337192, -1.1958576827350336, -0.21294716275709247, -1.1561891355480265, -0.6535762961618486]","[1.0465797600481053, 1.5758544878180758, -0.3255425035794539, 0.9835201298305578, 1.2137013829335945, 1.2809506209188197, -0.9618301428622771, 1.0821351938351822, 0.6132692836598324, -1.2779853617369679]"
4,"[-1.1427888731060818, -0.0400721843700973, 0.7145236254827729, -0.7216450134378217, 0.21500087085389574, -1.2132818634610874, -0.31151435794602444, 0.05336160609180762, 1.4061696380221718, -1.5372781881168345]","[-1.0127211166855596, -0.38390113104755486, 0.5637728655317806, 0.4861535968449675, 0.7064300971095792, 0.7979779601384855, -0.8364914386102201, -0.3638428312931534, -1.4013011759083365, -0.24070595137508666]","[0.5423410073255286, -1.3905678941404398, -1.2403416441355115, 1.5438855959385323, 1.4259650607651762, 1.3003210527564835, 0.5669558598337807, -0.2024990259422188, -1.281895301059625, 1.3717896527934186]","[0.7378723280791553, -0.6470955956124301, 1.543376373150262, 0.6041744226795545, -0.6076563175162464, -0.43179464154397396, 0.3149973164326716, -1.59368231011642, 0.8366562293725512, -1.112874517295511]","[-1.339358980900464, 1.1135192261411184, 0.5534665871245146, 1.15365988932529, 0.5018788478612937, -0.7622424978225326, -0.306996634127328, 1.0032433904058586, 0.699305909321227, 0.10261577633269003]","[-0.45452853602121635, -1.2715803485918724, -1.5711360254528148, -1.147120720020136, -1.3056750602956266, 1.4739269047301584, -0.929776145431582, -0.4807298304843195, 0.2870854893512682, 1.4342276822469953]","[0.9053816902782303, -0.27737016319361363, -0.6396893529417649, -0.8614915861346827, 0.4977079950398373, -0.30424216633883927, -1.4527181680153325, 0.8026512256828342, -0.028984683651573695, -0.7758338898590702]","[1.4080981775018562, 1.4728041553529154, -0.6509812292982742, -1.002902554088266, 1.450362714250598, -1.4346781152370902, -1.1504456551395479, 0.9660929280199282, -0.30362318630883767, -1.2684878787292788]","[-1.603201066599251, -1.377660362943923, 1.0500363799825179, -1.0351863857190744, 0.1639946455639696, 0.9772843139595611, -0.25486580415014326, -1.3609142712489577, -1.3077863130405039, -1.1148138263508751]","[-0.6256590737979423, 0.812001485823286, -1.251603680485425, 0.08326061925069084, 0.5001222647412717, 0.3991024120550244, 0.5410504263361249, 0.06622078240552831, -0.2747168021031485, 0.5457679800126884]","[-0.41940425642011214, -1.487550854306335, -0.8683098301902059, 1.160570186485542, 1.0659313249927358, -1.317117714553261, 1.2472238248787741, 0.658821310435576, 0.8572251274328884, -0.6953398137761011]","[0.00035835121779448365, -0.7634819875076262, 0.5607679498033269, 0.08967203205477925, 0.8862365939835954, 1.5717492975258809, 1.529893857550312, 0.5578055156181492, -0.6068730605784676, 0.05866350412156773]","[-0.6457151008983897, -0.7135582421979437, -1.292851988245717, -1.3856953705592152, -0.9289913942483452, -0.6538243623012381, 1.066607717660553, -0.8570682875323139, -0.8425199468593734, -1.425868758619281]","[0.048523639035462196, 0.11791823664838685, 0.46252302950178725, 0.06375555178235137, 1.0786418304854664, 0.45527457909518443, -1.5494492973128269, -1.139868525024317, 0.46430514110463506, 0.6344894236375991]","[-1.2633477932772095, 1.2911372697741599, 0.03184662577882946, -0.04307979630040526, -0.9930007483325155, 1.3054957583074445, 0.019377348971070685, -0.22509056443746944, 1.3379474680669357, -0.6363354474545683]","[-0.7487775328111638, 1.455390175287254, 0.46824820469249895, -1.4555703748907063, 0.21023055633363796, -1.194496852309556, -1.5282298134811731, -0.35689488157209626, -1.0195384823342692, -1.4172407567484604]","[1.5486804029536825, -0.32586215114960404, 0.38474389027686673, -0.37746871805622306, 0.8161172134266788, 0.5537931010983734, 0.4475450963868304, -0.8495768597883726, -1.3486391903582362, 0.40148822293843534]","[-0.4082377439220448, -0.10292316923564804, 0.8460560845056198, 0.7160140123123933, -0.6300157829296177, -1.0747897501423325, 1.1299484123366725, -1.0243054204518662, -0.3444812135116986, 1.1214635618672313]","[1.4246650566517882, 0.7707615652497064, 1.3083475161609428, -0.04192095414251673, 1.3106679863857305, 1.3352057835848559, -0.7154318659679179, -0.383038058500512, 0.7385332121555135, 0.23327837194891776]","[-0.4117078810946251, -1.231481529665659, 1.1731347240301204, -1.2927137517356082, 0.3876007752647479, 0.1722818170129028, 0.43565476814823834, 0.42429166251263073, 0.5688962613531285, -0.5678074288831663]","[-0.3528746120439703, 1.1287873042902565, -0.38114785694990827, -0.3120097934967745, 0.17746933339071447, 1.3367358659816069, 0.8282114462742447, -1.4499833220330036, -1.4306509769588696, 1.2747489517212705]","[-0.8181591668706978, -0.8890919374804285, 1.3707914585396508, 0.6705049868085196, -0.9583537846635308, 0.7582437245803866, 1.3841660278802443, 1.012400070661445, -0.02569122393806289, -0.8681846226185687]","[-0.8612479166403972, 0.5567989071883455, -0.31605232439216624, 1.1702779341504916, -0.7278517424018116, 1.1119500458765756, 0.8984372305152246, -0.8460330358534587, 0.9165471933634022, -0.31080857776291193]","[-0.8748312172979286, -0.09680234087901685, 0.8982310310397073, -0.09765358194030638, 1.4914950939631781, 1.3457699849813953, 0.5563395264019353, -0.0524313856267109, -0.004468743929512797, 0.5700980533326692]","[0.16183221895735467, 1.4011694780906265, 1.5951911388753186, -1.2410474718441786, -0.8026415561487367, -0.3029315837010331, -1.0509040969964007, -0.129972949977456, -1.2330860103443615, -0.15821393137778017]","[0.7415953373119324, -1.072967173336147, 1.18595728466676, -1.0459921601057711, -0.4370177874221761, -0.9323077026081048, -0.1046155449118511, -1.229395382252653, 1.597807768743631, 0.5947986723192114]","[1.5180307517141847, -0.07952308105487793, 1.6080866081621572, 0.3544243921091703, 1.4249597285556188, -0.26457730025058757, 1.2693824688173483, -1.3644997476047909, -1.3393384408476057, -1.5609904699577501]","[1.208974404608036, 1.1208885565856668, 0.031882605620566995, -0.8314577676933039, 0.2569447375461713, 1.5993410625699758, 1.4867403509231614, -0.9953289978406539, -1.4155741048655668, -1.5739313124592376]","[-1.1802662781230404, -1.4737962581080688, -1.3345765847222815, -1.1441864627925882, -0.16687593940147205, -0.6467598226739232, 0.4107969051079743, -1.4915556598929596, -0.7134446162023633, 0.06630894127286324]","[-0.1484127085363205, -1.3295728057882186, 0.12374322713877484, -0.3957465740883943, 0.042711788922005445, -0.7499692904647186, 0.9567234074413187, 1.4412744367010695, -0.46095915274751964, -0.5063323950259095]","[-0.45714127255053594, -1.473575165178149, -0.014208095516394126, -0.9738218846613284, 1.319041799164217, 1.114635314020148, -0.783016862912199, 1.5147681624002751, 1.0892823726600565, -1.532980781694938]","[1.515427656425746, 1.217520296499636, 1.4675640998683348, 0.9437267093736335, 0.26659422739542893, 0.3444626306519567, -1.432190425204323, -0.954918092142071, 1.1026970921895685, 1.5317128949745231]","[1.2438749687728308, 0.7391710528201649, 0.9421250930742668, 0.7362297653422951, -1.4643316736490994, 0.7735184640373798, 0.24561488746696813, 0.5270721388393564, 0.4018160467159744, -0.21967509145157638]","[1.406662831056368, -1.0993558846234155, 1.4953693939658392, 0.5542035463397212, 1.5810932105506703, -0.15579723753328456, 0.3154083187466976, 0.8033480025142294, 1.4697189265077513, 1.4783429896213787]","[-0.32234711140353833, -0.20086724397598488, -0.1624330968746348, 1.5774594515043048, 1.3476585363042122, 0.6929751462126252, 0.7321710198116285, -1.2464454916616952, 1.442535439794137, -0.8567556253084427]","[0.4643913956418637, -1.1465288589378007, -0.46210599498272265, -0.7227703338282778, 0.9165302297524538, -1.2153810872817028, 0.18822400405373152, -0.7895564050027447, 1.1837745987668629, 1.4436589422404231]","[0.9862502748987474, 0.43479802873548, -0.3241600054641134, -0.2882995528715713, -1.2714497524359296, -1.3421396734325417, -1.208480679462125, -1.3904944596822386, -0.972708651422716, 0.48779043098490593]","[0.9240661078054431, -0.30098670972857233, 0.20814963034335054, 0.004105783309600763, 0.59972836912074, -1.3671827520075974, 0.20725274119141446, 0.452138015897682, -1.4206607113460226, -1.3887270651227859]","[-0.7575985427251429, 0.3323348027873154, -0.4193076292444555, -0.1757710934861807, 1.0339762468384168, 0.3287107399417064, 1.3994709442566187, -1.1440693114033813, 1.3212116228494115, -1.5131898656282758]","[-0.20722011679021723, 0.022522490916519144, 0.5674521349609831, -1.252138948622906, -0.3115547621118713, -1.051125681155951, 0.8149865476759359, 1.0582051810037907, -0.08772090809400312, 1.3048721549749716]","[0.8088665968398923, -1.0528308554787884, -0.0903757358209516, 0.4237995310035654, -1.022128768674344, -0.2818545263354637, -1.2572057680063515, -0.39278727599560637, -1.5949702930487126, -1.4450408866010607]","[-0.3444594599256732, 1.3495157489296505, 1.069410661272415, 1.428208975743273, -0.8445522047347, 0.8365681488376198, 0.3817311696014256, 1.3154296194859527, -1.3149476938047817, 0.6795442722828242]","[-0.7748915869016395, -0.8305595578244896, 1.0246544759933287, 1.0086323286169603, 0.020659048468450125, -1.5135410352359882, 0.533283243395759, -1.1219631970115373, -0.3852860991537195, -1.381416418438892]","[1.416387980225593, 1.0742085918676083, -0.5713284100620089, -0.03680839333885455, -0.7919497437290174, -0.11782561398397284, -0.8107009001638987, -0.4641511982099553, -0.14286496326671516, -0.6720605670704369]","[0.9695777648555328, -0.6272204848526621, 0.8259208815313777, 0.6959940511266192, -0.2673898646764097, 0.5571172846821555, -1.5017959723915009, -0.9281682820098279, -1.0030631064213482, -1.0653546538005556]","[-0.7201224976746371, 0.9118749350507827, -0.9002417619014331, 0.19993143977881078, -1.2730700330343299, -1.164510840196691, -0.2286932185451802, -1.5167773934405395, -0.06966665851476828, 1.4544816793933735]","[1.506092603292604, 0.8485936739558202, 0.07716949693099728, -1.238094495915754, 0.6550749164966478, -1.2347822570540747, 0.046939581468889546, 1.3221532092891564, -0.8604653659021055, 1.183771857030338]","[0.3648584282040501, -0.3906397160698769, -1.4070879008685457, -0.9163705285170544, 0.7562033006112219, -1.295781540771164, -0.43729951721794524, -1.336637066996454, -0.49786376385196696, -0.2745931640632282]","[-1.5946691789710126, 0.4075861755166357, 1.3751963841001387, -0.6973642638312783, -1.1578413814764055, -0.6877966293211747, -1.1510850573554865, 0.15064375695417387, -0.6289541178844562, -0.05275584701544034]","[-1.2396479144008532, -0.9168662655256857, -1.5293274667503645, 1.105970460437515, -0.6371480001787138, 1.1657486998075686, -1.529228852633775, 1.4566561582851385, -0.007552738953236604, 0.30716133601911677]","[-0.1761691088615125, 0.4516894384510284, 1.4608110409865143, 0.9882985326204041, -1.0436106635524387, 0.8641167117646358, 1.5413922269878166, 0.8587996004252072, -0.2494801178495516, -1.1706200747155027]","[-0.6493653527035834, 1.06777773217018, -1.5438983073299064, -0.5580495304794333, 1.0992856054912412, 0.06733774094546163, 0.06728786666501096, -0.33387706025692876, -0.16279262555945562, 0.721080507124324]","[-1.3647761296109926, -0.5563591222805107, 0.09448892216370841, 0.45552767599340216, -1.4542396381666738, -0.8578321403627486, -0.2741087203397332, 0.537320414845686, -1.211203014101214, 1.077798693711118]","[0.552773817713109, 1.2838067889327047, -0.18494202358863476, 1.1355805951356799, -0.8965058666624467, -0.9085730295281818, 1.565348719787294, 0.10676128228419235, 1.185569518102402, -1.0878885992253857]","[-1.5787930791569609, 0.2941501337732393, 0.9492640320550794, 1.2415928334415463, -0.3457584181479194, 0.29330566791422963, 0.18571007324811806, 1.1672714889925948, -0.6521398105339349, -1.3214161125122441]","[1.43063688243766, -0.038750729637608616, -0.146273996596606, -1.3042286236955505, 0.5469419478237323, 1.2749431919163041, -0.786720917431398, 1.114668472696434, 0.6644184510148579, -1.3447582171875259]","[0.03300146695718298, -0.7973981870999419, -0.6963655587396334, -0.1591560351706185, -0.14578523337942761, -1.4216543420891303, 1.3623033147001844, 0.7362438754115548, 1.3919315008418462, 1.105427434263627]","[-0.5488263219393326, -0.4084311044209856, 1.067441305239011, 0.6882997040175947, 1.1807248125763925, -0.8953323616975576, -0.9721476230713287, 0.5005840318537271, -0.00970125257497445, -0.9622036257871651]","[-0.45903964476904924, 0.9508705290763086, 0.7466774735913693, -1.3525239632571702, -1.5102940182073188, 0.8773333236468392, 1.0779681789666808, -1.0739222821547516, 0.786946248268638, 1.5930257416662426]","[-0.6413070782363345, -0.9793236585137195, -0.9504695931751023, -0.23635162476142324, 1.4368097386369643, -1.4208384217529784, 0.7659160666829665, -1.374028708942705, -0.3511133614027102, -1.0655698582210018]","[1.164732689436014, -0.5453616844742752, 0.8996890552203989, -1.2507255509356328, -1.4094382631608766, -0.5941925727627808, 0.2167475929178413, -1.05606548800228, -0.8959997301854745, -1.447476146600006]","[0.6425114624230668, -1.3299797732563858, 1.0502027794307645, 1.1927181278783512, 0.3043125701856677, 0.36355700027591564, -0.9177501928850234, 0.41712705286178586, 1.1479142054062996, 1.4515051462669994]","[-0.18121763124419976, 0.4487946763384909, -0.1593794487292448, 1.2413552388821385, 0.9744299824775395, -1.4712198599091753, -1.260933318568891, -1.145826986580937, -1.5310591856383888, -0.502742917966511]","[0.7727564238563915, -1.5452017978488322, -0.5712861145701633, 1.425644692782532, -0.28433172495832437, 1.6037214572912828, -1.205275324482076, 0.9135079670992856, -0.8581179554932701, -0.2707569536813601]","[-1.191803848830088, 0.5965946170905947, -0.848104587420823, 0.7390526796114378, 0.042040896886229806, 1.0383107542649008, -0.9764568725386025, 1.046197086847445, -0.8546823877344633, -1.3958715064399145]","[-0.6964397541672148, 1.1879943013478833, -0.7956916027556484, -0.1622948975257743, -1.264916188261005, -0.27119754155005715, 0.7016557717539023, 0.8684176440524514, 1.55209050754054, 0.8700797629508674]","[-0.684781527415894, -0.36107169802929273, 0.34527892133311844, -1.1439211110431828, 0.3808952816149227, -1.3543106289703282, -1.3838516330920039, 0.8188278945111853, -0.8716725014126618, -1.383580146153644]","[1.3030196223759511, -1.5698951904876906, -1.2499511507304601, 1.1514710148990095, 1.322227571077279, 0.5745103946775245, 0.04264249299605738, 0.8404800429971866, 0.9068645495531924, -1.0602586847999944]","[-1.553745760014752, -0.015226767614922476, 0.8269318927709772, 0.39039331147731815, -0.6640649900798569, -1.384018234143958, -0.07133808783917184, 1.135483471245525, -1.0889258962881314, 1.078158920583208]","[-0.12163264252615957, 0.171392162660156, 0.4512443781166735, 0.6214867024805129, 0.4614607775232171, -0.5835932458079511, 1.0301759581557373, 0.008519275520362024, -1.2679984736076766, -1.329094044675129]","[-0.33467376195433185, -0.8678139276659073, -0.087858150690036, -0.8577686886299559, -1.4632602367626828, 0.5994665193712772, 0.44295034383735743, -1.5157916791076693, -0.322180988113139, -0.1686268070886341]","[0.1794099645778795, 0.8602403444078677, 1.5909454268457068, -0.04037866144995372, 1.0498710201538204, -0.6804281163683007, 0.28699495300963274, -0.9511974165803362, 1.4221034247117612, -0.2034393605507241]","[0.4853175685951121, 0.9694821106505831, -0.9411954107701407, -0.04682755613468825, -1.1775413612647831, -0.08519616745236402, 0.5075097645423288, 0.5088700157894466, 0.8709916518017384, 1.105101649450455]","[-0.5663548470941284, -0.0967249825246479, -0.5101170136496604, 1.151759043090474, -0.05445660882162917, -0.29787833523282115, -0.7249445834616957, -0.7614009290252927, -0.1860983117232402, 0.31822056941543675]","[0.530943625766171, 1.4412830750597458, 1.5067418052326689, -1.052831904264353, -1.4646557816392236, 0.04354801065838765, 0.3995549679594044, 0.3707677281085231, -1.352169477634923, -0.45495224912679655]","[-0.5465825912176119, -0.10384936363295383, -1.128574919374533, 0.3834821837141398, 1.582319976698329, 0.683411678050315, -0.5991692628553735, 0.4167917970708741, -0.6683229910754459, 0.732189920059747]","[0.1397529649008229, -1.1674835391041207, -0.4357760844532024, -1.127485987659767, 0.3126676074237602, 1.6016991574595614, -1.2560324689148579, 1.1256461220159473, 0.011288700797531748, -0.6886417382388096]","[-0.5433240828118666, 0.04604624955213854, -0.5595771052348444, -1.6030834831839273, -0.9404490884162854, -0.03968963703247308, -0.05042428070379379, -0.18472521636309236, -1.5210924496744096, 0.5018121267276716]","[-1.0482758021184688, 1.2184805712421416, -0.9885821190684405, 0.912602021144195, -1.312442816626064, -0.009936773781323627, -0.8690075439567627, 1.2468077355658012, -1.171733914355078, -1.2440560016661646]","[0.8352544543451024, 1.1951292713999289, 1.3721335504180274, -1.4291084125378724, -0.9640989290928231, -1.1361052924992745, 0.7194160945867609, 0.7335351918491164, -1.1120028795186148, 0.899278604081192]","[1.5444654745449662, -0.9504390366231282, -1.6115123998318959, -1.419605700340125, 0.8157711470842992, 0.7681495793326754, 1.1379569133635399, -0.3075819963234496, -0.6924139361187329, 0.270297158333894]","[0.7788113885004502, 0.8412237164533187, -1.3622803241680113, -0.37907897880693175, -0.9899228146923942, -0.5394857910000606, -1.1534511158016696, -1.040020587480605, -0.5711540094091456, -0.5187325118267916]","[0.12238793948290883, 1.0650962030125894, 1.4651960039293317, -0.602936050976016, 0.260300526900751, 0.005740587105054207, 0.3796092938177773, -1.37447327594951, 0.802803733159763, 1.4842077823894186]","[1.5872147617652979, 0.7399947886058298, 1.2311421922237198, -0.5237306361169638, -1.462977435456405, 1.1814632918796302, -0.4076593762357301, -1.5571291777780811, -1.1854700211931553, -1.1027791926454036]","[0.25246791080468034, 1.3738753774577366, 1.1825939026457521, -0.5957084877169943, -0.8785697868250939, -1.2176827836144526, -0.4381846274322698, -0.9039098139828557, -0.9196802262311354, -1.0923776143181287]","[-0.4248450752988069, -0.10625201954869734, -1.4782695795763574, -0.8047443292952154, 0.35971053426989696, 0.26766490812238564, 0.05840821379353489, 1.469536241040732, -0.34516164557733076, 0.006589877655243326]","[0.8968715100884785, 0.5486465817406692, -1.3086744758122044, 0.602139046124913, -1.1501497934980587, 0.8283980872952927, 1.0923386424664905, 0.09930477633793688, 1.4918740876170555, -0.13147370635197153]","[0.5130740768294872, 1.5608767400309995, -1.2978841625373505, 0.6764164358633651, 0.3245852893092003, 0.834210270347735, 1.0361919478628248, -1.1588014244634817, -0.5572115781952924, 0.7998692200000201]","[-0.9314561026839345, -0.857196617972156, 1.365846624785581, 0.3538257352473506, -0.5291669994845705, 0.733489681620449, -0.24567635171725533, 0.1689835426712416, 0.8295689881485937, 0.5589055927743729]","[-0.15435749000572385, -0.816881683535911, 0.23432818254743748, -0.21130907989857683, -1.5570226532159097, 0.19127087530578502, -1.1460915078775087, 0.34724202228096845, -1.5339922577328935, -1.4615317710587952]","[-1.5667106947704381, 1.3024013734989586, -1.2530712245762086, 0.34219056122567815, 1.6136079719233845, 1.5028758567387728, -0.6516317256242307, 0.4506985309497522, -0.6699211961574335, -1.208711427003117]","[-1.6078566733248334, 0.16522975563572806, -0.03184024939396757, 1.545327904956074, 0.30900226868666825, -0.7191235750738616, -0.3620054795431067, -1.5612989639800952, 0.886627814478171, 1.3602949800743507]","[-0.45704709654373343, -1.318627358672942, 1.2019045200941458, 0.7209590534973698, -1.5286991085011086, 0.8588959390407656, 1.0642962620122214, 1.329678536423423, 0.5471504558087905, -0.6631500627989001]","[1.356388682870941, 0.6152808008138138, -1.0651187317411328, 1.4789939541507988, -0.5501838102174024, -0.6984198418364951, -0.828228336252944, -0.5830533626809387, 0.4648230758088854, -0.15775574139847337]","[-0.4698952136077006, 0.7628464469312628, -0.08210322040646822, 0.21107098342130137, 0.4703811153469948, 0.6767862868299925, -1.149405669389761, 1.0714565362153246, -1.3224583398354066, 0.6025968923449647]","[0.9250447561762032, -1.4676284115920768, 1.4611852012942523, 1.3639209549288194, -1.029174958850672, -1.4867940213978936, -0.9714914121563049, -0.18260965301144583, -1.243071249782623, -1.3975363198923287]","[0.4376138717601723, -0.39535689349715275, 0.4402403726439479, 1.0065161290320042, 0.8404272833994018, 1.5315782536999758, -0.5868148697393838, -0.5173956590579925, 0.08958307320290393, 1.6135583841994334]","[-0.10316862985998876, -0.05316328727613162, 0.5399154147214191, -0.9993120949125535, -0.1554592163963655, 1.4455702112268276, 0.751141432462449, 1.5109304185014132, 1.0264386903969944, 0.48565035014919156]","[0.3203772077864713, -0.618153299602198, -1.1270222855277012, -1.464076214169764, 0.8144686652281741, -0.4748517143117301, 1.2665774014581848, 0.23198778825919342, -0.4181742966954376, -1.3437295639369595]","[0.20314949029778062, -0.7706442466048421, -0.9278276177973183, 0.7238929731561141, 0.7986084334253145, 0.6770049462159258, 1.4047341759616927, 0.7573167597425399, 0.8692064204012455, 0.18751133028829403]","[0.39275463534978083, -1.4647327934300023, 0.6148701213469714, 0.7302232112478646, -0.4138909364219845, -1.3742573536101559, 0.01394067226837814, -1.26244258836185, 0.7810061189698403, 1.560211305183743]","[0.9396323278801493, -0.6116051200713826, -1.2995953547286658, 0.426946748795515, 1.055958536515003, 0.5088770718897249, 1.233174573682457, -1.3192234132766156, 1.1595852799207198, -0.6912648001574242]","[1.1697808931026974, -1.1184000361382616, 0.08287270793786128, 0.2942331312950359, 0.08229168703064227, -0.9154862734868764, -1.1778229216967655, 1.0792479865268896, 1.1904318826201878, 0.8382140035066965]","[-1.5209817438233577, -0.3120653854478803, 0.3564822296998531, -1.051349294078907, -1.3834331018993433, -0.5559163811729559, -1.337408630779594, -0.05123179340018669, -1.4275110138108658, 1.136916572007817]","[-1.4644733039335, 0.8215870656348541, -0.7214823703371849, 0.11010040383673014, 1.250352259358071, -0.8130616103056595, 0.3878085406412213, 1.0973675065843422, 1.252714924940431, -0.6172701678858441]","[0.7261818325770473, 0.2691005423355992, -0.9115754240210204, -0.7494817445529274, 1.3792031252930568, 0.01086073247226893, -0.08888168187680989, 0.9094242498029836, -1.4384080234357537, -0.40359060071363806]","[0.7320913358772612, 0.7011814800334744, 0.8353146108668015, 0.21207849898553133, -1.3443215690575017, -1.1076670384686442, 1.4475992765949597, -1.47658817560724, 0.21701036700898912, 0.7242879047082913]","[-0.9884971682234608, 0.5470998967761931, -0.5161234693988275, 1.349820422459112, 0.9787706427026328, -0.6734198049035031, 0.6100492412777037, -0.5170771365908295, 0.7419458515313386, 0.2619051175660334]","[0.4131290335343203, 1.0801849161747032, -0.31015464826901495, -0.17406576953886876, 0.7575778114204761, -1.447772283896489, 1.0188265876971738, 0.5400513940012628, -0.24042732078497742, 1.4301104355056773]","[1.0529669296043958, 1.1337764419916176, -0.5601075753597693, -0.7776299511578949, -0.23204903063280624, -0.47518745909886984, -1.0331907500754967, -1.4806401010887644, 1.4250284783107947, -0.9782535091307295]","[-0.4028130739559965, -1.4898924692934343, 0.005665891297540471, -1.5430150177315307, 1.5255271449346202, -1.2773432975742012, 0.7774223077760225, 1.3153037750991055, -1.2403274309833698, -0.6136865161737872]","[0.39738589644293754, -0.2554432507600044, 0.41196660309887667, 0.550347286042272, -1.4633565625472817, 1.1707318951995873, -1.0972673145647867, -1.401226837418673, -0.1272170094697933, 0.9746135676647771]","[0.9369833070039899, -1.4926077631670682, -0.7444576977648155, -1.431375121134675, 1.0815412591059137, -0.6100833101037157, -0.5386448567985627, -0.6838997508924627, 1.050083399841193, 0.3734569117975064]","[1.3510463408487485, -0.9953411394643904, 0.22015685959002806, -0.5384511268034564, -1.404613425756133, 0.631494935706058, 1.115845137075707, 0.5734694790487138, -0.5689118355184872, 0.5385788687262631]","[-1.5729428929188392, 0.008226366637753335, 0.40678026173149906, 0.9068065651082247, 0.8209292247404778, 0.21125961584424524, 0.279895820854726, 0.9948413432222156, 0.07901514386602071, -0.7828667862270418]","[0.04441921079454714, -0.7800238171622133, 0.6331573817713885, -1.3734519201945072, -0.9810222397499984, 0.4577077769760969, -0.5583600213085065, 0.8409476665923821, 0.9684342803986321, 1.4299650591039903]","[0.8018397344351187, 0.4599903612384595, 0.7289474096239812, -0.6703369507613078, 1.5715302782072613, -0.9385358026303756, -1.5822111796381428, 0.07384201548497371, 1.0694416189284657, -1.2283869089697985]","[0.2916152474471656, -1.0005178642425512, 0.9119957703752863, -0.15425472386418937, 1.0989664465869162, 0.4142318867130621, 1.5455161901739523, 0.8822798141311914, 0.48856307686498024, -0.3044978523291475]","[1.4515118150389879, 1.3744505685214405, -0.6940048083231479, 0.12464740314777822, -0.18118266096980506, 0.872646528637099, -1.1134947534564255, 0.7016790719878356, -1.086778042034227, -0.172218425318998]","[0.16016586321229953, -0.9855122466733408, -0.8001826422976442, 0.3267240538296299, -0.722157763972405, 0.903004824627295, -0.644549460680775, -0.8288481296607082, 1.1263972243992075, -0.39005359608128054]","[1.4658265048667918, -0.904756211262208, -1.4974871152330986, 0.8622463540613552, 0.94897558616336, 1.4050611309720051, 0.9362482837908024, 1.0349759574368345, -1.2536244968442254, 0.6019649672316509]","[-0.7370764537363783, 0.45735253345331905, -0.1878595005375734, -1.0677134093702452, 1.5606924845824146, 0.43029797050402774, 0.19356518259909428, 0.9646444940850079, 0.99722422761422, -1.0955710151235574]","[-1.213425328408392, -1.1370668069944214, 0.964837198451403, 0.5312428634299988, -1.3180801429148798, 0.06796051094070688, 0.5846558865791285, -0.4092177556179035, -1.2501246984825682, 1.3381060601521186]","[1.5731833813710918, -1.0927723991761153, 0.06797342417034025, 1.215823667550386, -1.5219015394817945, -1.4372669523930879, 0.9689634083814704, 1.0794345012690165, 0.08784501259174848, -1.1823566558279917]","[0.05228343763986154, 0.03875824524922855, 0.1199783672804231, 0.9844310022398899, -1.6019598063671194, 1.4676003446612005, -0.6813770445965821, 1.500348027946678, -0.9480581102950678, 0.09751928499973195]","[-0.6517992587267142, 0.5541655458156596, -0.8687467652895642, 0.6968270161688701, -0.3931232849953965, -0.49443402591233476, 0.20544666243424814, -0.36103906928976603, -1.2572795738125282, 0.8231407986068229]","[0.5456434135345178, 0.858362316099857, -0.5965664254556746, 1.0705150628984743, 1.0779277417678848, 0.1179518095759422, -0.01296254260908114, -0.3338484459155868, -0.03385366581560545, 0.6883364047691596]","[-1.3472815949241819, -0.9984135705938667, -1.22296127141209, 1.0728545706875368, -1.0376063034392133, 1.434434061532897, -1.52420920826305, 0.4888594768575545, 1.1456494830154837, 1.5157095508246168]","[-1.1982149792319816, -1.3814956911729521, 0.5585800194548849, -1.3848802433571203, 0.5022780611646422, 0.9896426611061826, -0.7636683784831461, -0.7635339198834777, -0.5854392570015958, 0.559755797782826]","[1.5219926795743213, -1.387943578507114, 1.5261821284300758, 0.9431022090352141, 1.1558301758617064, 0.0861409112335938, -0.08772880352587342, 0.724411542944809, 1.3335063778866396, -1.01945583521431]","[0.7028653173893682, -1.4123703339392153, 0.6443809398069522, -1.1540742716052663, 0.6017748084509873, -1.3741641756158993, 0.684172180528841, -0.216041233793143, -0.07729370197414265, -1.4324482484148364]","[0.08643559787675947, 0.7572307291849283, -1.3524242010671021, 0.2364146919369723, -0.2529396550653107, -0.20988102158348676, 0.9985959724256106, 1.0474488208943673, 0.7393730146835389, -0.08158684276906647]","[0.7080535194467785, 1.5714802297485089, 0.2492315891825132, 0.5392415651125728, 0.5011616273341817, 0.33033320039579706, 0.7024996959988443, -1.1548408359712807, -1.3795856769799473, -1.2169725091409496]","[1.4055279691469047, 0.9240719877314318, -0.9079468782642695, -0.5979167596646611, 0.8932219234415326, -1.4107523804536628, 1.2689860814080571, -0.35972787662848926, -0.2400817432578386, -1.1533434936717546]","[-1.2204512975419832, -0.2533368222844188, 1.2904859860034352, 0.9718268639582721, 0.5421096771097389, 0.07065295363234725, 0.8531945528925231, 1.3426425427181572, -0.04895601325631893, 0.9562439746217604]","[-0.7542542091660046, -1.3233883225738852, -1.3250177274444987, -1.612026591676269, 1.4146424852951411, -0.1857523556444658, -1.4207749441145598, -0.9927329052113488, -0.9662129595180838, 0.41392203532630445]","[-0.9941427391425177, 0.678556542090615, 1.2257837258826005, 0.021758540842344853, 0.4301108616195939, -1.227477968445023, 1.1271630214961035, -1.3754659423658588, -0.5530340183115325, 1.3556591531735709]","[-0.03841268542189913, 0.6489035475985108, -0.5515917686708747, 1.4849242970850858, -0.030236639466505233, -1.1893006009603304, -0.33397140474274667, -0.6932181999145882, -0.16280635551843758, 0.5093303998394196]","[0.663909368462976, -0.5901517476512863, 1.3111182764853742, -0.21267557527447956, 0.4460992890498172, 1.3684359922993377, -1.2168961921015047, -0.8708422481362661, 1.0455364580805941, -0.07969819106244014]","[-0.22440514529312394, -0.8739326090395515, -0.9997007405556599, 0.2477716592477306, 0.3675334186830128, 0.7308976210131957, -0.6769289503165297, 1.1282516880382505, -0.020208429400659034, 0.9663904171442761]","[-1.582751613192473, -1.1394964130201537, -1.4692574513590864, -0.5183769508130411, -1.1911679258055081, -1.5728672169421078, -0.3065492644408967, -1.4018964764640713, -0.7601080390516418, -0.4312675391313652]","[-1.2646102721121741, 1.2133421246624017, 0.1009192850329228, -0.11550008028376313, -1.4740462071595974, 1.6080703694178338, 0.8129347282456889, -0.5981510307075357, -1.0201777282506002, 1.213603995304409]","[-0.05414315819853166, -1.1895511031854917, -1.0063931682212863, -0.3871579873140558, -1.2553199183152115, 0.3905041477172535, 0.14193227772275163, 0.8650346840006824, 0.558892549996965, -0.6838259798635958]","[-0.9928524067582594, 1.21922949508597, -0.24254723101262488, 0.19278302556728288, -0.2254025107048867, -1.19574053814911, -1.0224587390038256, 0.4943849939229241, -0.1537546254132307, 1.048647466009645]","[-0.4712798502127933, 1.4337912046647077, 0.1608545788535014, 0.17896997502349032, 0.40853673651037603, 1.1013478751909727, -1.561312035719368, 0.48374586472470327, -0.39450785590847937, -0.22197802750963302]","[0.5822748144243421, -0.8799363654864742, 1.1273903528126294, -1.1839543339403624, -0.8374289428741556, 0.10720415421554064, 0.8408772284725221, -0.033639666232023746, -1.5929536707228213, 1.0025370198111094]","[-1.2852035380791564, 1.3978366438678993, 0.5611534262775844, 1.2847810521035479, 1.0975989222879794, 1.2094900871139398, -0.8448375118744085, 0.44924514870180765, 0.48193260901109225, 0.4330959992193839]","[-1.197603683119415, 1.5998867248734423, 0.7937129318390204, -0.9860268654165308, 0.2430020933809982, 0.28777304316325925, -1.0766273391724623, 0.425724038542322, -0.9280702033321837, -0.3607301058836754]","[-1.5513580810168042, -1.4524897817893863, -0.4644761509809696, -0.327886870387337, 1.0568753369282877, 0.827125149403249, 0.9475871837419634, 0.05212702595788743, 1.030727142317553, 1.2369589275929833]","[1.3519034811992898, -0.8640023194903995, -1.2730715511884096, 0.8331608192497377, -1.4622423549090389, 1.5427788933466111, -0.4872177353084095, -1.145432327039551, -1.5168313137204885, 1.5218920571191519]","[-0.5513982822240311, -0.4588120085880709, 0.9451155272726508, 0.04553172181336884, 1.3343896371479178, -1.2258369523551846, 0.04746608901860894, -1.4873812929296377, -0.5800493744101778, 0.013290606999488475]","[1.5366928173480758, -0.4852011868008723, -0.3866207952524321, 1.2328074039228691, 1.3947808093723895, 0.5272283115178986, -0.8151511566418963, -0.3977323711705518, 1.5503550167257156, -0.4760928217502278]","[-0.8349321606147495, 0.44392002100096306, -1.0026142860119096, 0.01403159527042952, -1.1129426521645707, 0.1017961853283551, -0.23942718961360265, 0.2860692861884633, -0.711725264083936, 0.7746903653954775]","[0.27451746839036684, 1.250733700176923, 0.7332131887569209, 0.9378190393982959, 0.8328232709424284, 0.050428853404820506, -1.4220938937304763, -1.0528098862387427, 0.922393057191004, 0.45855841602376834]","[0.40969812719092413, 0.2067289829174086, 0.8527298722185845, -0.6897138180868262, 1.4802512932312588, 0.2331333617080964, 1.1502768040414986, 0.2789651589244686, -0.5369224330807576, -0.2024004059917881]","[1.4520151090760125, -1.5118613743246594, -1.4962535260160248, -0.9706593847674949, -1.4182396861160886, -0.21184761861209322, 1.1493609196083185, -0.9847473278600475, -0.7695873444286806, -1.3505394691801282]","[-1.2121424824283555, -0.7849881787770842, 1.6023247379548011, 0.6539473555914355, -1.5461658284065574, -1.0797643706230597, -0.022133995438795795, 0.29093784623997365, 0.589435662313945, 0.07312598317567054]","[-0.9177168630780418, -0.2743061518861405, -0.8655565429752702, -0.05534942801056286, 1.4882686296554057, 0.5693314528715199, -0.9701634352637962, 0.22738403296840337, -0.45914365048476435, 0.2678581714092936]","[0.1266064509688256, -0.8959512375672027, -0.567419290959831, -1.0063478467270657, 0.5975075657581623, -1.2953997800754262, 1.5910247086299827, -0.16492098981248948, -0.23006677074043647, 0.5409069821115033]","[-0.12058944456960963, 0.2710463316196825, 0.8864087126387257, 0.5279969387513677, 1.3513959137112899, 1.1497830092206125, -0.7078909428433123, 0.13284035805500793, 0.608653781115339, 1.5131830304362301]","[-0.05110875450876229, 1.0221652273799382, -0.43718778533009495, -1.4347234150814112, -0.8871185047214764, -1.1691974527374838, 0.7472329871698125, 0.18552734420194894, 0.9072568940644983, 1.1582580433075709]","[-1.022316069680265, 1.2516046926106177, 1.5201201166265355, 0.6824594688223127, -0.273282964725704, 0.14037252169510417, 0.28894539010293485, 0.7459740771333307, -0.3975634470798004, -1.2204209274622921]","[-0.3595859666977621, 0.14538098267069177, -1.361297975319484, 0.09666803987601225, 0.7465970366154151, 0.9139739818373473, -1.5302426240205342, 1.561197906803486, -0.684883197672676, -0.7830449256073951]","[0.2922485520191551, 0.07999017724200308, 1.4785846310281348, 0.6615292154546841, 1.1875433505052153, 0.3916951470117769, -0.6359427098892325, -1.1738985674842604, -0.6211988473792667, -1.2023168162598479]","[-1.5534666255206635, 1.3476764545581812, 0.3333420235947464, 0.3862558825810676, 0.4829481837290919, 1.1626231126189186, 0.3834488742867388, 0.5105929761976138, 1.2029292937339666, 0.27595685133849335]","[1.3366066225527358, 1.0595284258755564, -0.4878833899540409, -0.010680788151260279, -0.3199759467284373, 1.1548232979803479, -0.35748702337117133, 1.2287485251462957, 0.5154145716498788, -0.7600449964804632]","[-1.0772536173103142, -0.32804210015394286, -0.30691369889029163, -0.07022087537319455, -0.7479174510089359, -0.3434012651603089, -1.1711878328278953, 0.3482689949510309, 0.65465093592293, 0.30797622661930024]","[-1.2602441986007005, 1.5169722970362072, 1.1525222495628067, -0.3258201858076304, -1.2240607661177587, 0.49386907372792255, 1.2308815732901568, -0.5074046589270012, -0.8614892920967547, -0.8469739920183172]","[0.3977479939476867, -0.5483937779503565, -1.0794877232593791, 0.34879139736847264, -0.22039646216997566, 0.2239849914981049, -0.6861309020985206, -1.3425370847815346, -0.23315476921478306, -0.4095914940568799]","[-1.2025470493335229, -0.42130774553286554, -1.3380674204508454, -0.18846427824296952, -0.7267055601143411, -0.5723209840220398, -0.06483432865577776, -0.0667894309405257, -0.6858488066736951, 1.0573538614454545]","[0.7675572764970786, 0.3929631292795892, 0.6140295214575184, -0.43245554941704367, -0.3478529654925937, -0.5005336335596113, 0.44131684575714747, 1.4430500260333985, -1.4204400416048295, -0.06249000797217841]","[0.3376786113502752, -1.1337594379680924, -1.136261814072649, 0.44100862623903536, 1.1993611598671552, 1.3311156943574685, 0.0957173034937242, -1.5248628902431431, -1.2727455261782978, -0.7370102733894487]","[-1.0839773045398635, 0.2543600406692643, -0.6866156493371466, -0.13618737243524337, -0.36398738031176947, 1.3150526791787351, -1.405291466216217, -1.5690918668685592, -0.13015965460197965, 0.7510501120260749]","[0.49549362389305207, 0.779266230491598, -1.548526785437595, 1.3759310092079473, -1.2744665859403008, -0.15017078859544641, 0.7128161348784632, -1.2816844313603033, 0.4008436863111884, 1.6094344156698739]","[-1.239131808035753, -0.8745282971488851, 0.6885243993527821, -1.1769798666344742, -1.401943989780952, -0.06560857346993676, -1.0328116302925159, 0.9791507298442004, -0.7729729009019722, -0.6818358899263441]","[-1.106608932725063, 0.29477332318081406, -0.9021790160563762, -0.32151692257120756, -0.6569260012858098, 0.6539408056423421, 0.6857055815807875, 1.046932395743664, 1.0029104626159353, 0.1693978322719667]","[1.11808400545643, -1.3850763831237336, -0.12751632743168773, -0.7723004766782843, -1.449522620739348, -0.6549204153431344, 0.2711117431813188, -1.1044157231334701, -1.5711575432995808, 0.05962244493017388]","[-0.7494105261206991, 1.6077307784768098, -1.2844551965669517, 1.3964664296999305, 1.5408522081470344, -0.1361702746153115, 1.3075938654412713, -0.6345306407134952, -1.4373390036554794, 0.7750354704149047]","[-1.1374294676649912, -0.12636340789723555, -1.5970586760574883, 0.5059508002368025, 1.1369236887410397, 0.2210804863411795, -0.5052352651043508, 0.49517765303227534, 1.1210240513717036, -0.37529445023452235]","[-0.948074361074891, 0.6494758775212084, -0.5711589238305843, 0.7990493658483215, 1.1741127450313664, 1.4502723799218264, -0.0818537070309886, -0.3021429463772629, 1.168675744631793, 0.9794162062478553]","[1.5856901721678622, 0.26289341894940144, 0.1560041156413654, 1.424218220774351, 1.3339469941428006, 1.4758016500855873, 0.8679913346753465, 0.10345476445605084, -1.4121936959139834, -1.5295411878321774]","[0.052350553044526515, -1.014147143934176, 1.2217067866071543, 0.4740397160098113, -1.5291518042217092, -0.269177608473089, -0.5112887257540322, 0.5362860473678732, 1.378118027675285, 1.3804513731249823]","[-0.8569889304970914, -1.1210351673974497, 0.11004601791112578, 1.4274014829941617, -0.7565756870595938, -0.5811811263194251, -1.070305918343311, -0.9391207429630846, 0.7541262456311859, 1.3225080611613778]","[0.5845331685704007, 1.2095047327269772, 0.1752228029519931, -0.7637038361872595, -0.1645445334533866, 1.00893939322502, -0.7919907085658072, 0.5482372304747534, -0.9738473307287909, 0.3537108970075742]","[-0.4487405674278173, 1.1154384886956366, 0.4335204262607526, -0.3451197894519604, 1.483764774302489, 1.1608851869350243, -0.4208423671333117, -0.8114900279908476, 1.0522504925311926, -0.11671163164294329]","[0.05240574005157361, 1.1270385948738162, 0.38657493379434094, 0.7586402837896165, 0.2653748583271145, 0.9229969062764045, 0.2674376310125266, 1.2661263288295173, 1.3030353447082743, 0.6727914383759006]","[-1.5925160009427954, 0.06070124064461835, 0.500252015954314, 1.3026172559408669, -0.8297401178299706, 1.5176902742500578, 0.9962147909781915, 0.8684222538672048, 1.46374819372243, 1.4359705891348473]","[-1.1578753405744375, 1.0320736265872066, -0.33361069616391337, 0.25467307975220077, 1.4354546869397464, -0.4461859602982676, 0.3721631017748792, 0.3930667291278862, 1.4649876433916384, 0.7021838041625386]","[0.5151497615328431, -0.6811204587717538, 1.2947059557519993, -1.2496651944285357, 0.48396928294927033, -1.602679029758084, -0.3154444627083932, 0.8141302959938468, 1.4181246739385855, -0.4583869591618359]","[-1.5993746113397278, -1.344024560595006, 0.7633688683764368, 0.6468733037659709, 1.4984763673717802, 0.3385519477724177, 0.9654536587808327, -0.43629470609443755, 0.9702691119998126, -0.2769552198172289]","[-0.5864850108220152, 0.8427619936344675, -0.27826499632217394, 1.1138772337512393, -0.2527939166124493, -0.29128922399714163, -0.15398492148051335, -0.24649004088957516, 0.715085242950352, 1.2465120845964046]","[-1.1924682814874816, 0.6807069184501584, 0.8505496823081495, 1.3358630241744995, -0.7169973521861481, 0.73261489302373, -0.45389719725099886, -0.3325243004445122, 0.26957440652721343, 0.6298023593006148]","[-0.6301882730684024, -0.25213605859107546, 0.39219538173811364, 0.7983347628850614, 0.31141093222652483, -1.2623808316034437, -0.8373335692777383, -1.3199628768684897, -0.9009827776888872, 0.6747199669358399]","[-0.9382882025476552, -0.7756505379621459, -1.4531319489998502, -0.8015106467625622, -0.7713109663057756, -0.21319977174627414, 0.5024840269726596, 1.6014730035146156, -0.9562662432146316, -1.1680719548752738]","[1.2623319896042031, 1.1938817953683682, -1.0972605752812652, 1.0535895483121136, 1.2038165745951734, 0.694105922798772, -0.5078909079815006, -0.9671577211803325, 0.9908335822691576, 0.5202028987523266]","[-1.339335481935578, -1.4571861177338274, 0.4234195241337164, -1.3129280415412634, 1.068047124324369, 0.42988991141363897, -1.065589531131231, -1.0522011265008322, -0.06460960066054522, -0.8592475023137522]","[1.3416284238872809, 0.9258349559607053, -0.6874880280133508, -0.07564031582860276, 0.7143148811416844, 0.2160714139477733, 0.4480662565107698, -0.6446538582281964, -1.1001969983772384, -0.744836531470675]","[0.9132060803648576, -0.4654237285054432, 1.1179863397527052, -1.6123214112647433, 0.7114038794342541, -1.0372161494550518, 0.30635258416672273, -0.37811774452008007, 0.7937585772411486, -1.3649252528360296]","[-1.3985727384349456, -0.598329996872166, -1.4431557029455273, -0.6035871911371486, -0.502618516527966, -1.1788483377061052, -0.09421649367619178, 1.239252020361739, 0.8140220475828683, 1.1469437451909252]","[-1.5335794802357323, -0.399487381568439, -0.25803253729767084, 0.8719794066725983, -1.229916145268679, -0.5768991891378557, -1.4602122019346824, 0.6763950623617103, -0.29108887356696767, -0.8217900015586682]","[1.1946351748660593, 1.063248742645313, -0.39804712293531463, -0.6461258245965105, 0.9364741941763204, -1.0049816551706794, 1.3120584527651173, -0.10274107117331233, -1.3027322538550141, 1.1935802627909413]","[0.8838680854760499, 0.9869124080729739, -0.6615185250285083, 1.5233849701600066, 1.160314440565625, -0.7780876508920171, 1.5200210163513623, -0.510869597909084, -0.3863779131267049, 0.3253587388026331]","[0.9976115651312072, 0.6569380996397975, -0.35744659943213963, 1.5361570172836734, -1.4455412950107847, 0.669321631373307, 0.26619970425432404, 1.4910514806936859, 0.350579702374225, -0.6818834208562664]","[1.4823894590700837, 0.17076129823155428, -1.200920362536671, 1.21379178397193, -0.035617819064802214, 0.20864764432218297, 0.989619062317733, -0.21947033715702569, -0.4553444417179835, -1.5901338241527352]","[0.9886944299667486, -0.6672017496226195, -0.3399210996071762, -0.6813696553296975, 1.2236303092970195, -0.7185574164459896, -0.23769359647340926, -1.2687295115860289, -1.013349965345692, 0.910501787877732]","[1.1363599560060078, 0.024787255916909112, -0.3827386322210349, -0.3638007955517224, 1.384095142430961, 0.49881876305097483, -1.1596341582623835, -0.5027952819589472, 1.3284403682523211, -0.7053543477280846]","[-0.451216635983515, -0.45436857571386247, 0.9630323653632766, 1.12905727483543, -1.5565691579385292, 1.3239655075244574, -0.4533531040266323, -1.4539087733471443, -0.40742747650956046, 0.40379695643439506]","[0.394483468708712, 1.6099193756684178, 0.7019301973182634, 1.1138986126248462, -1.2254537570846686, 0.8901069134939403, 0.842510469610799, 0.6457044172301756, 0.8309151047986432, -1.095444219770441]","[1.5650812549848707, -0.9645837789261773, 0.3760942743600051, 0.039373833002310565, -0.4674721162821436, -0.12097054503740545, 0.3398719605995624, 1.081295293405315, 0.3583874383801273, 1.581342349367564]","[-1.476725916839859, -1.324313796371907, -0.27194536208600817, 1.4640169665311298, -0.7439017877819385, -0.7546566312456319, -1.549385711206255, -1.5353834469088847, -1.4719190444329178, 1.1750984949569219]","[-0.9331213732309773, 1.4835971020905148, 1.2035266697143183, -0.08327201613249735, -1.2908173882602876, 0.6385951635992551, 0.7242011360871619, -0.16187511815729483, 0.9267187001329757, 0.4277508728953996]","[0.3095522545892906, -0.149395755364788, 0.17502314221525217, -0.7248134872754747, -0.16774060775647026, 0.3567129833163627, -1.2216921567950845, -0.9183379492463472, 0.777376206603245, -1.3432656175323632]","[0.7727390210890963, -1.4797751599246431, 0.5838291479203894, -0.5363660131261943, 0.715908274078239, -0.8925288500941116, -0.41753149682194013, 1.3991493776980244, 0.08627858811591427, 1.0207829874661232]","[-0.5058152935622346, 1.2739187791812956, -0.5760892602431049, 0.05357764032904977, -0.3035044613410909, -1.1230260327231065, 0.8581174347524922, -0.3792960458361465, -1.2487252712335428, 1.5044751445944557]","[-0.786484247718809, -0.5777016658546681, -0.6958907630840946, -0.5510512064849016, 1.5403779524420855, 1.1830504265216897, -0.32215812291824286, 0.09344652561496725, 0.27522924208898747, -1.4830312640754135]","[1.5893071889518278, -0.2649797666314315, 0.2323833545782461, 0.19349681356754078, -1.3619099172073121, 0.5826711683841581, -0.7391135880862509, -1.171704450903792, -0.7379223333265627, 0.6273478489525219]","[-0.03671048842927971, 1.3704570699413896, -0.09403046339623966, -0.9939644241207367, -0.07273210986550604, 0.7530973570190458, -0.7370807187022703, -0.6119193863953414, 0.9570239362216872, 0.08873906994781944]","[-0.8880032215306229, 1.3754405039505908, -1.182634454522357, 1.4630690624499652, -0.28558746631407406, 1.5462555055952119, -1.2338286535317646, 1.2266105621103343, 1.519661317642567, 1.1922852281268392]","[1.5388368575970586, 0.7883117263348325, 1.2702684071467605, -1.0811343320238822, -0.01602403117490714, -1.1664820554470368, 1.356181088962547, 1.5516801068449975, -0.7609198095410404, -1.1956573184657195]","[-0.328332760484654, -0.29546497647458536, 0.954966281384436, 0.1720954082195616, -0.7720632369251402, 1.3490978839251264, -1.4462497036532986, 0.23993115653337926, -0.5331721235094751, 1.4809616902656737]","[-0.3196355219998468, -0.5963999531665021, -0.5286866353336366, 1.0618803412504807, 1.6128798431124958, -0.1431151701055957, 0.658314273484848, 0.307079991641642, -0.6659881737202825, 1.0079287887605588]","[-1.4660128669207149, 0.24956569923323602, -1.3179272448689128, 0.8849575663612907, -1.4335663986163827, -0.6417151814405418, -1.1043170527680453, 1.1639648476064814, 0.17358133708248813, 0.49013870045912133]","[1.2849268974581434, 1.211701372592862, -1.5308301017545423, 1.3367904223209193, -1.2023800824461737, 1.5217387741347101, 0.31048179118675234, -1.4448178503749578, -1.422964679105331, -1.3764669478715177]","[-0.6997589743629592, 0.41710252511147905, -0.022317496998402353, 0.6020969458811369, -1.3395912007679047, -1.0399013721900152, 0.2838798024301499, -1.261668528331917, 0.6010491497683277, -0.04970792034117877]","[1.4442303710191258, 1.2332648962804234, 1.0614724261593218, 0.2276547872125505, -0.17875619406403764, -1.3478958572393862, 0.9348137226735789, -0.46334763428755155, -1.0495111004306916, 0.5403116179705774]","[1.3914392009755123, 0.32784314353329513, 0.6568462604121734, -0.8415595780883214, 1.467177992281885, 0.22240533989212397, -0.853398748626699, -0.5372934281749631, -0.9286818909329322, -1.333381223634853]","[-0.0034763727153062085, 1.287876772521125, -0.15167263690124289, -0.5210026610404552, -1.082638179786449, 0.21857447670483232, -1.5300665195394652, 0.4323371051175364, -0.257616753745048, 0.14293319085934453]","[0.3189333726434329, -0.17775376916314167, 1.029897286352616, -0.42477272297435653, -0.6140891979764067, -1.1826546464847705, -0.361059593905392, 0.01855958891575704, 0.021293647706051466, 0.7111899548211023]","[1.1045055812880364, -0.8245604479566087, 1.550472265556723, -0.639366455505884, 1.0392404040801462, -1.554721524020251, -0.48642927955470094, -1.2645959074063047, 0.47280888795572773, -0.022865461238318785]","[-1.1811056537308444, -0.4498980248408351, 0.06797676131594943, -1.3911503572838957, -0.2421478865282234, -0.4031733950131733, -0.41276655794219197, -1.5575265606551447, -0.4843980774171448, -0.2267271753214819]","[-0.22417608857638327, -1.4926116723635128, -1.1769177873184948, -1.172415422788499, 0.2615557053023776, 0.49105421551896145, -0.957217328240723, 0.1927732744217152, -0.7517017956224873, 0.08419849684102831]","[1.249858837897083, 1.485273265770691, 0.22099653539795328, -1.0778588823264998, 0.40790290887320646, -0.564741087014039, 0.5731693302741592, 0.6634866417632708, 0.1484845571574942, 0.95990551302055]","[-1.3979418559984715, 1.394318756196657, 0.40999329300501675, 0.06749343550744902, -0.1631736628861289, 0.4671057183535887, -1.3971298502233949, 0.5062368352256126, 1.2832533419870185, -0.9768058017805783]","[-0.7153293846292419, 0.06443809692011682, -0.19296239179384767, 0.49926577174365905, 1.3448170864600986, -1.1808980996819667, 1.2290198028746957, -1.5466345170863771, -0.21742570640320769, -1.5597393312130032]","[0.9356190253689456, 0.6598329206133906, 1.1938557020202332, -1.1538050036189564, 0.5987284605262464, 0.5518489577298782, -1.4287729072509796, -1.5808652433550368, -0.030488517430560025, 0.6772200711139416]","[1.3138252785935016, 1.5525382548780016, -0.8649903319706004, -1.3220811283937777, 0.6272236396237258, 1.1876408210339555, -0.7074720208635202, 1.382452620190914, 1.0825423904628186, -0.4358329805940089]","[0.18479901473624172, 1.413212688681972, -1.1125131828899286, 1.3899427806003155, -0.13888358267680445, -1.604792965984694, -1.232233936695331, 1.5977503836660252, -0.2104074922706678, -1.5685030886882387]","[0.22926241144055792, 0.7867267754248135, -0.5775570082214627, 1.4947248477496138, -0.6386563499201026, 1.5820106371355802, 1.2191244180749385, -1.2167077661567665, -1.2705355509657088, 0.2252365790439712]","[0.3040177764074248, -0.43352561452005056, -0.7495767097319381, -0.9689883400399908, 0.7063405574578159, 1.0976462367348283, 0.8665451190132893, -1.0409032401956062, 1.259322627034023, -0.3220625215994162]","[-0.5028048923592165, 1.2581445717412616, 0.9551492266949357, 1.580860490421248, -0.5444313009707307, 0.9858883650225994, -1.238983494824376, -0.8520831197205806, -0.21426725155552928, 1.3376682775768791]","[-0.6354472623312336, 0.4542707956825094, -1.0400063448365282, 0.3478601019869585, -0.11066104600715132, -1.1602826921252833, 0.7608778558715654, -0.9679831949527421, -0.7475871924879068, 0.05944557968080444]","[-0.5166022214105035, 0.7767896265926351, -0.3752652225734894, 0.5815123042246895, -1.152042089253902, 1.224923516444815, 0.0005998359437833223, -0.19555817003406828, 0.4506156088261011, -1.1160990577414591]","[-1.093101597799054, 1.0363376116117196, -1.5588485116462134, 0.3899334377335202, -0.15758679642638285, 0.2722103560325164, -1.0016093644768147, 1.0651190088803797, -1.405994321343479, 0.00786170611882464]","[-0.5022872607581741, 0.29882650376393993, 0.6735023547305103, 1.1653474591554915, 1.3093575489690155, 0.17815601657730196, -1.5619695987168098, -0.5738639092113746, -1.100202582338997, -1.0648929392297595]","[0.302039213100219, 1.561214052026695, 1.0166163410815257, -1.2626947695663842, -0.2918182662671862, -0.22685650335122154, -1.2995343196966123, 0.5232063683660648, -1.1115058817773389, 0.9957854877937122]","[-1.4446290337377585, -0.0014203477927385855, -0.8708518801628541, -1.0681128086079057, -0.24219330812754847, 0.8966158398251203, 0.6866276205003379, -1.136348995869875, 0.7757917120886111, 1.1502594968846003]","[0.5948278863623369, -1.2657849816194051, -0.963316081079082, 0.48572685140045113, 0.7166244486882234, -0.07569562789071105, -0.6448779708120633, -0.11984431386699512, -0.2540159216891438, 1.4059021078387186]","[1.4560104466479133, 0.4521694526868312, 0.7464372348173596, 1.0382221252147277, 1.1094217065946546, -1.2735883447444327, 0.811761743609015, 0.7073674423503089, -0.8067120564871799, -0.8552542159339664]","[1.0313248324964337, 0.14179445729007045, 1.3229291527878893, -0.2664156537753657, -0.18264981966308413, -0.931535116543772, -1.289398948080044, -1.0998674843522744, -1.2021522676541745, 0.11856289736389458]","[1.0909168911254845, 1.3412341160067904, 1.5204223538189603, 1.3671772513835365, -1.3990732451813073, -0.43969321709930953, -1.2521072428334805, 0.9392249182650008, 0.7639725216602331, -0.4002866436981305]","[-0.9052692666838397, -0.7280390379127987, -1.0521430469147743, -1.5573746336796175, 0.7305069085210323, 1.0363008883003983, 1.3259776190815167, -0.2670487600117357, -1.546294633947556, 0.3220592001682343]","[0.23424543197250203, 0.32671715343248997, 1.127824527031394, 0.34085973014301074, 0.8339311545584631, 1.5747679780601391, -0.6455244565807838, -1.5426711379147597, -1.108901294354856, -0.14922618086379402]","[-0.5140178816463992, -0.6620732336060049, 0.6252539050920323, -0.5380204018599841, -1.3588990201810944, 1.2814266064290192, -1.1892620594175023, 0.35357495440235986, 1.0899152185990681, -1.0340817766362846]","[-0.23311716990804254, 1.571308309778733, -0.4829150213855271, 0.17641447606053706, 1.017362967838055, -0.7579253337808946, -0.228022352002627, -0.06103137680203696, -0.287968245318619, -0.6265694075150235]","[-1.1471758791557607, -0.6472421580930808, 1.1948839686407275, 1.0486741719379293, 1.1326618328549674, -1.3605225984662956, -0.04361957843085218, 0.9202477144887369, 0.07950384031946611, -0.1468713265319186]","[0.010702227782419138, 0.8979498788899218, -0.23257441212112795, 1.1153069832749787, -0.8164694052773682, 0.9500616250716623, 0.32915401584177606, 0.44371674618760215, 0.7799326571159111, 1.266585667089784]","[0.9282973036431992, 0.4651336507807975, -1.4522732823776539, 0.4954050849087652, -1.5784615555309824, 0.0732949925358557, -1.0606255058281207, 1.3840521768738978, -0.9309710484568626, -1.0388297934621726]","[0.012071876258737957, -0.8642162851326699, -1.0469951693640565, -0.8944801175326736, 1.169339108163983, -0.1426621075200416, 1.0320078190965312, 0.5615725466642587, -1.5669334344240387, -1.0798786103150382]","[1.1672926272857693, -0.05715014718464562, 0.5858505396331912, 0.8133397818129571, 0.5213181111672971, 0.47554024356327274, -0.6884698543684205, 0.36080682965670907, 0.1055547574731528, -0.19766519863635446]","[0.4925613407283431, -0.34830905089139175, -1.04334299915447, -0.5113907544095067, 1.056249401908993, 0.7643658581004042, 0.14228397208153698, 1.5484979207579928, -0.0805281528654338, -0.10075345332213459]","[-1.2080689701694605, -1.0194187224742361, -0.9089721431377389, 0.33725115236826775, 1.4311579461502029, -0.6314977743299772, -0.5297469970400661, 1.1787492065664358, 1.370604062382705, -0.6960447650639306]","[0.705489628195497, 0.5493140925930748, -1.6141979389295258, 0.8057243798471432, 0.7040142834179908, -0.7326483422522956, 0.8599983862193388, -1.4402851767095175, -0.45311726144885234, -1.3503117974287684]","[0.002997733405216918, 0.8359369010626772, 0.4351818725043466, -1.1687037857183513, 0.16771827497803238, -0.8876198333608615, -0.807046283397898, -1.5852902098875403, 0.5675886281145459, 0.673661894245257]","[-1.2589091719533552, 1.4077457287815327, 0.5395803927674101, -1.21283332461933, 0.9651062908163128, 0.7682661996744979, -0.8817115913828854, -0.8829916510096891, -0.9313868357843516, -0.09665984422920681]","[0.7721542553917664, 0.7302675432126713, 0.8862159503731766, -0.07912296673659402, -0.014223985479896673, 1.4649239610796636, 0.330370057756743, -1.2992414115521724, 1.3592154268936807, -0.7670172427133912]","[0.21025680543093173, -1.3007396828879438, -0.6042165700372957, -1.0719775427499187, 0.13472143821103955, 0.3993203960367726, -1.031699610025722, 0.09343362599814342, -0.04404190002235664, -1.55860387953754]","[-0.24628821216195362, -1.5137799363309081, 1.6023642076648041, -1.4961079447191972, -0.8381260490539161, -0.08540012662061325, 0.8430788895288055, 0.6122653781717133, 0.8023945200212075, 0.6565535352042642]","[0.7739187553562248, -0.4316585207694885, -0.6650177508693529, 0.04433279173869731, 0.9251746258320814, -1.2074627858500362, -0.08030374359964076, -1.0195769450767405, -1.5731885633320823, -0.21081104064911016]","[-0.3221508648785285, 1.449362403249927, -0.7097025474386833, 1.0806712399591487, -0.43035788410485076, 1.5281577863265312, -1.3493273735399511, -0.26626189707374426, 1.5680317151104477, -0.7521541040475915]","[-0.042577558944837834, 0.5529892787164772, 1.1681909503106698, 1.4141427857938087, 1.4075542064481428, -0.6631539105565238, -1.1863858673024847, 0.020430192906289557, -1.0995768619700743, 0.4305039981310861]","[1.586846854919349, -0.668145558348785, -0.4241249188376117, 0.9756491062515842, 1.1460693750934787, 1.3409370614178684, -0.8712645013440597, 1.5621323171953763, 0.552323056827809, 0.022062906885860212]","[1.0798993118214861, -0.057352016176561715, -1.5644288443465693, -0.7350060481764749, 0.06111025268282688, 0.41761654025118755, -0.2997122430833936, 0.2837893989929843, -1.2332562000532208, 1.5479797284009944]","[0.39486499848180934, -1.1799479858285506, -1.5892968911794338, 0.499626155891284, -1.4484398684878057, 0.1431285046692432, 0.22793740114790517, -1.2491835056361857, -0.48511287218126387, -1.1178612984757246]","[1.4846581549945976, -0.5365654386158041, -1.0886556334704514, -0.9026748712907624, -1.464325553568629, 1.0093346856498093, 0.7211339813452295, 0.483024832991481, -1.2672810676272337, -0.33928702671247013]","[-1.2662912115718536, 0.42674724459493296, -1.367696303178667, 0.6931117198228582, 1.1441686341913164, -1.2294987786711533, -1.5774323848672496, -0.47191941929425707, 0.1933122765475508, 0.7933001093222458]","[0.4571749241773988, -0.3583010008267089, -0.7411938308431602, 0.9511950650572891, -0.3072784301655471, 1.3884743350239352, 1.0744102359974468, 0.8435747993963578, -1.2752153292314192, 1.541308255942266]","[-0.46299486531681366, 1.0250882591665298, 0.7288014071484601, -0.5257188461953126, 1.2747500137693653, 0.9716576442181752, 0.9991807511555351, 1.3004402720327612, -1.1319956189031841, 0.18807888571148923]","[-1.2662154536272692, 0.6574718063121079, 1.4910503449887433, 0.6533218864231856, -0.28156035721155903, 0.4481567515553255, 0.5711952737455341, 1.1954219456637687, 0.1128595767741789, 1.4660039076784979]","[-0.5060279177668128, -0.9159886658831086, 1.1855896111663982, 0.4374978649361565, 1.2261400848503454, 0.1563986193391116, 1.5324967344142362, 0.14511341791011323, -0.47586396836826306, -1.163162668253347]","[0.637030484452755, 0.10441055052964643, 1.5918502295328394, 0.48102727235401543, -0.604525842659662, -0.758353705426002, 0.4000807428834805, 1.3440453254562454, -0.6300402329974271, -0.09025120921780272]","[-0.7558388995002143, -0.6174366229618161, -1.368708833680909, -1.2331395895886308, -1.6074494336712721, 1.3272958754693076, -0.6522511970274343, -0.33232641546114405, 1.0307098237049739, -0.024914922117611482]","[-0.17582784475364854, -0.7293095670233535, -0.7293322039749711, -0.5543571601582762, -0.35516618218626816, -0.8323769542270236, -1.2811060864217585, -0.1745992399740146, -0.3706840042702373, -0.3362838975800111]","[-0.7013509536420813, -0.5893030469867009, -0.38017871875233467, 0.42783687568270024, -0.16933662767319113, -0.8408401021390659, 1.049804470989541, 0.341483951813772, -0.6829619856507537, -1.5923003975289445]","[-0.523108388286162, 0.5115082389070134, 0.8524092262842378, -0.18017192749719757, 0.6593688512077289, 1.335698291927796, -1.1404565226421974, -0.3932668506853676, -0.3864954039713906, -0.40227540386757954]","[-1.0542724540953228, 0.3517908872757327, -1.4184066837378606, 1.3423912408373524, -0.34656294004639077, -1.1742339448215044, 1.482659634358921, -0.5295950816423709, -0.2720367132884465, 0.11124258221832206]","[-0.30480205170075014, 0.6111894587860767, 0.41776495102277567, -1.2069938963363351, 0.8222471401896776, 0.9065501720033491, 1.4768243495780724, 0.0023777476230368855, -1.0925434783272978, 0.5644290058469834]","[0.4098653429757242, 1.597897998036451, -0.4323465472231909, -0.37692335421957646, 0.23145927865158633, -1.215536390167777, -1.1420986690008912, 0.968377871897951, -0.7905032567555971, -1.4289498263149414]","[1.47138666582577, 0.024505567341924106, 0.6253521617877325, 0.6944609599844727, -1.3455338944246285, 0.9246793335232741, 1.056052346378137, 0.28509068743000254, -1.0357873008345413, 0.8911660473588956]","[1.4462969813292461, -0.02525004371757289, -1.3112259640171668, -1.137340408762102, -0.6887529412321878, 0.8643761681700899, 1.339764514239076, -0.7274834018603941, 0.5063882628478398, -0.5600420489131213]","[1.383038481021576, -0.2400893022456494, -1.504116529862515, 0.6023456728449537, 0.3909902904755107, 0.09893947042663975, 0.014718591570611173, 1.4698527170750144, 0.7185301066633598, 0.7421348022258947]","[-0.6019311669994973, -0.6639386047329434, -0.6111261053998767, 0.9842269104670875, 1.1442995590241303, -0.7210072757649758, -0.642383885012774, 1.3703313001974573, -1.0790276496733093, -1.004194770005066]","[1.5828725977511935, 0.534559499786845, -0.31340137535079515, -1.4879935289495807, 0.31600336979424837, -1.3724315710609982, 1.0015179680699715, 1.0177529978219573, 0.666395650710577, -1.0985181136138475]","[-0.07160533872358132, 0.25871564046481654, 0.5073951901464921, 0.6557320582430695, -1.3731698169454465, 1.3489612312379387, -0.930113788587067, 0.793926380687402, -0.12061246679205606, -1.4111254276487728]","[-0.04321546654849873, 1.1493040675568134, 1.2266335138665059, 0.4844329867922137, -0.791821682925582, 1.1557652391891198, 0.07898887326789117, 1.2574385064594331, -1.2744568972817598, 0.14180796572530707]","[-1.0237519757020017, 1.0840380815188766, -0.7521969558904172, -0.24304617160472874, 0.11850038607772273, 1.50016163087618, 0.8151185065509217, 0.9173203229025884, -1.4658399452166078, 1.3699266420868792]","[1.1423157378624378, -1.0915761878148742, 1.3194998746123545, 1.6131929716165634, 0.9563834194997356, -0.23402409713648664, 0.9107296464756827, -0.31163404885147195, -0.5469728777702942, 0.2969712581937811]","[-0.43309222529914493, -1.1690224855732687, 0.9426322010891064, 1.0367255504523283, -0.2282165028759917, -0.11224554731937109, 1.3850595047920424, 1.5737798928183206, 1.1233691297263313, -0.3842973000750438]","[0.02988225271332401, 0.42069310687631933, 1.3346504737504112, -1.5622348611613017, 1.1339871754499877, 0.5698169296656403, 0.9165785245172473, 0.9318447005495525, 0.13281261210392725, -1.4355292415064171]","[-0.16058024208882737, 0.048963699262844385, 1.0474274113697821, -1.2590440344046399, -0.11404047643730553, -1.064816446337864, -0.24900844765603103, 1.5508898408333178, -0.8547660499009934, 1.2294641638088608]","[-1.347635129803077, -0.07903754129691998, -0.7117089356991133, -1.1819100871255068, 0.6249652914430754, 0.8300169505930017, -0.22125859843795737, -0.011293500314722538, -1.1776989337743404, 1.3932461642907596]","[-0.4449819475844228, -0.5047359524484358, 0.856659083174808, 0.6568340755072799, 0.10584089839864741, 1.2911414794690947, -0.44641690562177283, -1.3524584267411577, 0.031094589833930097, -0.8574399817797181]","[-0.24140013144522476, -0.11588983049469426, 1.4207033890796334, -1.3543657584985902, -1.2217286057005625, 0.5555123299056475, -0.9983880228382959, -1.3439439702070568, -1.4373824816558933, -0.9630489442133776]","[1.4517995836909239, 1.491476478029147, -0.3462761005780446, 0.31937632298559016, -1.538809835326465, -0.2718417185008928, -1.51431288167311, 0.6312123635590274, -1.0109226647813028, -1.585468883454807]","[-0.2408917314675949, 1.331397174916097, 1.588229273097134, -0.6571601373533527, 0.31414046223932024, 1.5445959698715352, -1.2584564063970674, -0.8148310126090024, 1.5186361522357723, -0.6812175697656834]","[1.1856246263136168, 1.1695433502615482, 0.05013992896576602, -0.8723689146037951, -1.1580270505165637, 0.6603139253069386, 0.4094649149383418, -0.5579151140040408, 1.6140099815245015, 1.5900713771106307]","[1.6012848060679503, -0.5270531754564969, 0.5418535776973581, 0.9337630403404065, -0.5906548785752386, 0.2598585795464634, -0.7615022585106023, 0.712812636732183, -1.3066529837134417, 0.669773619153545]","[0.3295551150679381, -0.1846665959601721, 0.11286963589114762, 0.7856472885889381, -0.7701915062715929, -0.30935574133568733, 0.18173710131071674, 0.6148339635456601, -0.036706010519802934, 0.32546568762980366]","[-0.06103265891915277, -0.566062261074729, -0.7307693087662036, 1.2577075992265168, 0.8808559640414191, 0.9561580890650281, 0.10419303206917574, -1.1943081968212317, -0.2705197658942706, -1.5928574565449318]","[-0.06276197307163556, -0.028855220072224075, 0.43882599773925257, -0.09483574832005903, -1.0048063753902636, 0.640952027637689, -1.316088557519897, -1.5500210558182623, -0.6746785107121959, -1.0580669029883802]","[-1.577522449691273, -1.4521041123852336, -0.8113045120767414, -1.2065840862545958, -0.0526417226505298, 0.8908359600588578, -1.2053180274921462, 1.2160940463681773, -0.8259175291855984, -0.5006332283193182]","[-0.20242280185540107, -1.4106333778647568, 0.5756060649198784, -0.7967925808833833, 0.6140592561428049, 0.24389038264484086, 0.8967177341394934, -0.28807600760723573, 0.03742942436391794, -1.1129536079383322]","[-1.0484513818241026, 0.5951100781430463, -0.028840051376783027, -0.9736891081933337, 0.6512797135502009, -1.2964300795592587, -1.169569770251861, 0.406601822594328, 1.0551514920579135, 0.5179730895820422]","[0.18829436656530518, 0.22302068308150158, 0.9800893549911618, 0.6099624800683228, -1.574338572487071, -0.8112592580719656, -1.4551901500779392, -0.7066908980097946, -1.5887581584640367, 0.8389322756480189]","[1.431543177390417, -0.7155427963270183, -0.7600508490704329, -1.2028607484020193, -1.4878132365921837, 0.3732203301049044, 0.7038807966463096, 0.7585314365264324, 0.24907749329197815, 1.4347763853838504]","[0.9269778630844661, -0.045798068817421766, 1.001174575914733, 1.5049140206959666, -0.7317523064945293, -0.5998667130028985, -0.6441394089548225, 1.0295717358319432, -0.9667238043100805, -1.0668271608240927]","[-1.147847096123724, 1.0289737180026717, 0.3932765157386471, -1.5869823310644449, 1.140481717312746, -1.302658512211625, -0.806267774921572, -0.06683821242809906, -0.7100220607544606, 0.06085649795460246]","[-0.052873749505140566, -0.25260084946303873, 1.273311800069652, -0.6540561338142764, 0.8965178031731034, 0.2633117961522886, -0.5892017460225101, -1.5945181483254538, 0.9969336446317221, 0.01285733158702329]","[-1.2852030892967181, -0.3945724985976926, 0.7738869666377135, 1.1411634129915202, -0.4764294570164014, -1.0769957330032365, -1.2924252008253208, 0.39434180639277594, 0.9861622675289294, -0.17077898369102718]","[-1.2990607259702631, 1.0555029491318368, 0.7920704224150534, -1.6060643845384477, -1.0418327987002336, -1.4446474068466881, -1.4780958567130884, 1.4910110794910119, -0.22081359282628976, -0.6124308582627151]","[-1.4602127057970766, -0.016000294784234814, -0.8582923440326391, -1.3335667004042, 1.5966669786865757, 0.7773191846820104, -1.3406044260831267, 1.085650059403696, 1.1740450429705467, 1.4301548628582936]","[1.4585213099463408, 0.7305517929960281, 0.43262471295113647, -0.8160362143827377, 0.24029058691453598, -0.0999738937134067, 0.19887664527817894, -0.3914607008846167, -0.45038821275216545, 0.5721961389265684]","[0.3725036182360135, 0.6634158476726508, 0.027990756549342688, -0.4247337979653085, -0.2689003610578826, -1.3826941932958643, 0.19150885640878546, -0.9410973841017618, 1.318280495340609, -1.43272898310551]","[-1.011286356926699, 1.112966912635836, 0.7404996251662443, -1.3639426849069995, 0.0922239505289213, -0.039824579235196556, 1.380647004320843, 0.25953340049007156, -1.1498378362902602, 1.5917717423257298]","[0.8633523852792235, 0.18901613756580504, -0.8644240237376883, -0.005654947242836439, 0.0182042499832209, 1.3121980143036156, -0.3104421244069253, -1.224394021430344, 0.38755613427804203, 1.0167760405174944]","[1.4150739675826278, -0.3262912396508806, 0.7523955281734898, 0.7662940972693568, 1.1139238439012975, 1.1405177300582925, -0.3122705820549665, -0.5008888793407775, 1.103358013635368, 1.34401545436214]","[0.36519994784052234, 1.4348458306090168, -0.6379587859739473, -1.239178601332417, 0.4126606483341164, 1.4985089010370714, 0.3352651356588874, -0.7493227233510049, 0.27861369794838264, 1.450081183016617]","[-1.3204072527498736, 1.070839733722449, -1.5629533026473643, -1.5246742555519148, 0.5716627225096329, -1.4801948846750703, 0.6788330993770537, -0.8643368791197933, 1.4133403690870638, 0.7445096474766797]","[-1.5462062685584848, 0.17688360679816872, 1.2095774316930923, -1.5675920041416753, -1.410230972070074, 1.014250971423888, 1.2453270913596652, -0.49406598839504, -0.04035108684583344, -1.5909673734298266]","[1.4893706489998655, 0.6431256131112213, -1.2813477737106331, -0.32785990285370614, -0.48356210319061055, 0.8136977485346493, 0.03291098076476384, -1.4572301711505495, 1.0837557978484642, -1.5793687099262275]","[1.5905589999716105, -0.9030309512614165, 0.6815330763507927, 1.0816526549779204, 0.6510786961700181, -1.4773307195207195, -1.5881977414446566, 0.7867797904430782, 0.34317495222089556, -1.2493371111141693]","[0.989617965236143, -0.8272889338114748, 0.3928658046887894, -1.2788430038033773, -0.5596376839152604, 1.0336968025488993, -0.4643260823840296, 0.47711201792956004, 1.4100266225572047, 1.3723883988325638]","[0.5413158913995035, -1.5567137390609405, 1.5755510036897094, 1.4391624498747797, 1.5904791640437113, 0.2105529455227082, -0.21260385074485466, -0.7647202714114208, -0.7484323994765993, -1.4506532497161235]","[0.7456597218605223, 1.2384649153011549, 0.547614338855487, -0.47233946009492334, 0.9832906424266885, 0.7110014418851143, -1.4749091205322045, 1.5825334562739988, 1.147965945825737, 0.5919915295944915]","[-0.5910735748678564, 1.256414071777911, 1.298532718017067, 1.1027840250273293, -1.1155323931434515, -0.5744519799728194, -0.9097761440195299, 0.3980386536278804, -0.7962372400909632, 0.09770013915732512]","[1.2568677913449817, -0.365474216356122, 0.34595930142828935, -1.3759216804610146, 1.3849206819094304, 1.349114306151633, -1.5786707909463784, -0.6583655641960605, 0.5464962319177067, -0.41378371186916363]","[0.8462821373817979, 0.651784131940286, 0.8293101151156095, 0.07961569661889123, 0.7062899005369143, 1.1855823703178818, -1.4500235799784078, -0.4371471786784564, 1.147054733853146, -0.8734586981929043]","[-0.0774147032215271, 0.9858152709945491, 1.152646581511049, -0.5377651255003546, -0.3780604949881887, -1.3854891303859929, -0.2215221226673154, -0.462840692945526, 0.16845678781538975, -0.8164390819964781]","[-0.20472345773652623, -1.1308611460046265, 0.8542750025012911, -1.140561813379794, -0.407829045581269, -0.8339006893438905, 1.0149472799020534, -1.092553493723757, -1.5269289154225882, -0.062361868852247815]","[-1.5443431026888952, 1.0541213569588748, -0.5333488328223082, -0.2009265402882252, -0.9387713537016774, 0.8707225784545214, 1.3926961644274476, 1.128162330326068, 0.6720792211164639, -1.3875523918748527]","[1.1160521280938376, -0.21165021650083538, -0.4998130649411714, -0.08742079804553304, -1.2687981715188468, 0.46358298163095135, -0.4697564513313732, -1.220067849587229, -0.887905089713065, 0.8316208243873406]","[0.9706570796058065, -0.9642670664483367, -0.12166185401680729, 1.354523942355304, 0.11156348026522989, 1.0782834072557632, -0.43703928394466995, -1.3390639270381337, -0.11725017983304786, -1.1710333757711198]","[-0.4072555034784835, -0.10904435477091523, 0.7254936005241461, 0.6890694472984804, -0.39764405913403666, -0.6724706510348987, 0.27775466960650963, 0.14138186432145705, 1.347161322909237, -0.3860726842365665]","[-1.3987184365204326, -0.9502181122687493, 0.5154242411613468, -1.4096514065973436, -0.8030436037712393, -1.3471176597298156, 1.436563582673942, 0.6481826791512741, -0.7108298878425479, 0.3746277584019697]","[-0.6549822404023659, -0.7448924620533688, -1.597130034310557, 1.1847881492632837, 0.6146283641704806, 1.5448692928545222, 0.05557288090086998, -1.2269486650495753, 1.0297590013361932, -0.8457415685703557]","[-0.9965329577527006, -0.7562096120424412, 1.5505591068172597, -1.0402341299817592, -1.0816047148037744, 1.108732276154556, 0.27290110923786437, -0.7517303233418736, -1.4647564267257907, -1.2965155993285495]","[0.9716169557362488, -0.8646489914775283, -0.05727214890906551, -0.43881986279014273, -0.7813267090298067, -0.4349163818253967, 0.8980463859492405, 0.008004090308807887, -0.4960420266306711, -0.19143551142713067]","[1.4412756947045637, 0.49090977036444317, 0.5137910928874962, -1.2065552504237655, -0.8333814843553595, 0.9598666368620594, -0.0529389095004793, -0.654697447011011, 1.3179443410279799, 0.443572662710348]","[0.4658629518985773, 0.06562336922388967, -1.5270548732959863, -1.5981972838385659, -0.8575779794463305, -1.009450181345962, -0.9015093945073632, 0.19338636518802987, 0.4922743921075772, -0.12532711849658207]","[0.3495218296813387, -0.35560512743199935, 0.11325359268970359, -1.1074366598734362, -1.439515345172228, -0.966490183136118, 0.44951684843507156, 0.025636912905236953, -0.818324740994622, -1.4934662591132901]","[0.27260814853830384, -0.5370582908270862, 1.2060570399511445, 1.3662533794362801, -0.7827856682216433, 0.023821723940272488, -0.6243584247331204, -0.795908671242194, -0.9148966582850787, 0.5902628015296378]","[-0.37557640637612577, 0.01097725788541215, -0.29843663945652454, -0.17623298238050356, 0.7474490530211368, 1.0271792134134414, 0.3971528721220716, -0.24248494419175204, 1.1383966578683404, 0.06652949551111886]","[-1.6136287201458566, 0.7515183296289538, 0.3341336756940969, 1.083478659183743, 1.583229109184138, -1.2902573965212596, 0.8651461295392617, 0.3971098202587342, 0.46427977202931503, -0.30995877994106724]","[0.06386989324339187, 0.6536080946526113, 0.048700751803062436, -0.8683681235398846, -0.9968889442336795, -0.08573316908690809, 0.020426619208919528, -0.7437107284792456, -0.2600719697937137, 0.9967884114359613]","[-0.5965245566419775, 0.5761912524226824, 1.0203333354350295, 0.5135963260543996, 0.8314391565349486, 0.6784992817894206, 0.8657819546024763, 0.9244568302045795, 0.6546224435816992, -1.5686407875676183]","[-0.9985809261585347, 0.6460127992893114, 0.44639576244161017, 0.44360368663413885, 0.36305717016763595, 0.3631870577098404, -0.3393806150925387, 1.4623092627520617, 0.7843081186099115, -1.0593443195922592]","[-0.771915082282457, 0.4663304494944338, -1.1540775780060795, 1.2052694645185436, -0.8771390232054866, 0.7165885066851629, 0.07805780280370822, 0.32414751905946226, 0.21793007743485204, 0.8810042716131252]","[-0.02725881877998937, 1.410397131675913, -0.9115444334639311, -1.0866184031279529, 1.2139841141401275, -0.15516171811915425, 1.261134165634859, 1.3455691793554898, 1.2016444058247098, 0.03742130514523012]","[-0.12548825421944532, 0.4669432123972861, 1.4748277599089357, 0.5899508401581879, 1.4458868099507227, 1.5004301993180986, -0.38224254671356417, -0.37736760999682084, 0.44442855627456845, -1.1039256303929639]","[0.7051601386399091, 1.223002458205452, 0.8443848159611753, -0.9492254955641756, -0.05596773166282043, 1.5394491104534866, 0.14908952433019462, -1.085692522689044, 1.3458786873891215, -1.084641160308828]","[-0.7436153215795703, 0.9037512933053788, 1.0210397611958801, 0.00767126413426622, 1.0420844988296105, 0.847866599397713, -1.1398210233262844, 0.1394933606829547, 1.5648832780722604, 0.9403082193010937]","[-1.5951061005451501, -0.6791897463940819, 0.3913339886644125, -1.367707431963458, -0.12423018215051451, -1.1661017697067924, 0.268803628915278, -1.1904826004939149, 0.2937731081535644, 0.5278922961723302]","[-0.3952076184095139, -1.2907029481012398, -0.13252776079775774, -0.07026006698424458, -0.3866799695712584, -1.0313104700149869, -0.21608387676106422, -1.516826803757565, -0.8467723166767402, 0.8301453886778667]","[-0.8272641641979932, 0.6999474155287588, -1.5153334045800184, -1.4420300206400425, 1.2416044066480532, 1.582222272150354, 1.0915106772148424, -0.7548226520666046, 0.9570707270287087, -0.07533766927815844]","[-0.7995944536609526, -1.382397578632556, 0.7179349342695045, 1.294070128163784, -0.6626241049268181, -0.08218343369270054, -0.8788169490441654, -0.6277302781428429, 1.0956791260648702, 1.0363281374173487]","[1.4178263028306506, -0.7586569692515565, 0.9977478669245805, -0.9747260146396837, 0.7175028368208891, 1.5518530147562584, -0.5810901211057844, 1.4606246444245525, 0.08791566662622174, -0.5132765681562734]","[0.4467059970369327, 0.6626279150417469, 0.3084389702591954, 0.15200717016827525, 1.4558490827855275, 0.5739689769476968, 1.4409955862137016, -0.8562348672906995, 1.16497825793334, -0.513918112851369]","[1.5036483453017073, 0.039505535701149785, -1.236730490773171, -0.9471213064942653, 0.23211614324835228, 0.05241383088085749, 1.4238591987227496, -0.8391797700674312, 0.31849419560893333, 1.4134847612997326]","[-1.121299681336342, -0.714153772105462, -0.4096399710471019, 1.0702732183913088, 0.5215624150041083, -0.07560961714548253, 0.35432043302888205, -1.1513354942054135, -0.6850609134818834, -0.7814025245738371]","[1.3226871956660138, -1.2738121000790488, -0.6706367745422848, -0.4453627503583697, 0.24271156623220813, -0.6600083102706402, -1.1597363137504282, 0.6386282958512406, 1.4482998200496975, 1.2885812641210017]","[0.9672383256537751, 0.9551121474398698, 1.3105538635044627, 0.014735696564477152, -0.9940785817287671, 1.0258525483258585, -1.2133789156890384, 0.5375745217057926, -0.46326422511484666, -1.4712288205916384]","[1.5329054626089702, -1.4704274996013054, -1.347052134087973, 0.8513528486329967, -0.2694691438710033, -0.35967888811354887, -1.4845900305888322, 1.0698110528336846, -1.3734690531663392, -0.48276133283312794]","[0.059662016256941675, -0.019649987363280275, -0.36505654439630497, 0.5132555886138599, -0.6817283054859188, 0.18474723586416486, -0.8197177703756674, 0.422633214478636, -0.9986933678114778, 0.3085672219269482]","[-0.3600157987848993, -0.3329301159983922, -0.03493004479214301, 1.5202417686047633, -1.4835261159493234, 0.39532337961627606, -0.7630242406134716, 0.16232123569734402, -0.34909264261088624, -0.5939081293647197]","[0.8525714560118276, 1.2591489156245546, 1.1752735693887209, -0.044134269458453224, 0.2195812033220279, 1.0913215919703947, -0.9824966722902436, 1.023959564599989, 1.3396470486591503, 0.4443231690007816]","[1.386373059372311, 0.5111187378534661, -0.2960228855245448, 0.48045960057569426, 0.08722767258909414, -0.3486215281732381, -0.1276998489855341, 0.7840300280158687, 1.442655535517496, 0.5680807620529755]","[1.562923166889615, 1.0383371263588534, -0.2608425076953187, -0.49684721282669164, 0.1035194459415969, 1.1870299055006153, 1.2807791275347578, -0.21243806571780488, 0.21766207518919067, -1.3358731761306266]","[-0.47706373964895543, 0.7073963392611589, -1.0162994272940051, 0.33048570269814914, 0.290171211551401, -0.5450684289034895, -1.1326604005174081, 0.36102371201589567, 0.08825019842225013, 0.9660492002323067]","[-0.4072697240614074, 1.5899582143625297, 0.5229093720557403, -1.5415692471646265, 0.22638844036935923, -1.591634929406656, -0.7938652901908216, -0.08054914172392502, -1.5278215377927007, -0.5093674808500588]","[1.4974891044250733, -0.5689998337962046, 1.3944706836515137, -1.56978719760979, -0.06284746790164797, -1.6001741371685034, -0.8825998939149292, 1.4803134573854813, -0.09062028886744744, -0.6177716467398155]","[1.241268728711848, -0.9502701443079967, -0.4760063956034841, 0.8816096953435282, 0.22696544275400776, -0.4019655298853573, -0.7636786792825601, -1.1657943823776045, 0.9459792264474642, -1.3112343302710827]","[1.3048906511314273, -1.466803787861863, -0.5798598506319461, 0.01868964818671226, 1.3341449112397163, 0.7139843926367488, 1.3538293452241028, -1.2495159942026097, 1.376365045262835, -1.1687742800066527]","[0.5340301551448041, -1.0136286273179596, 